{"scaler_mean": [-100.38488660106135, 4.457899401236054, -4.433439813182915, 0.9861499839184515, -0.5064653498622709, -0.39545909072238417, 0.7639779104113817, -0.4853224562213542, 0.3088602091069059, 0.081384923218735, -0.45617513352577044, 0.3005238937580758, -0.3435416998788522, 29.857724689881977, 4.585287575356288, 4.696867412776129, 2.463650295629008, 1.4438995512320145, 1.1071445257656227, 1.2799367009774103, 1.2516800230981382, 1.0103946540831918, 0.8524693284002242, 0.9579802362378987, 0.9558287156417847, 0.9221256707170195, 1022.2810290799958, 712.4090556541246, 650.329174019851, 0.14509755763509152, 0.03960230543284148, 0.047294095863246], "scaler_scale": [38.48526012921567, 3.993452999552036, 3.2616146120915066, 2.030460181596461, 1.3814845184503326, 1.0938799301572724, 1.0480937645244657, 1.0390980313659846, 0.7110819476752197, 0.6872963004744449, 0.708626813407131, 0.6763086505985401, 0.5040380415642592, 15.163892292248546, 1.9227427194192623, 1.9593718211556104, 0.9016121816193723, 0.40073635563811405, 0.3679926189949284, 0.3145208235697792, 0.3162414576469243, 0.27699881796824183, 0.37396650864537506, 0.3334791400179527, 0.32275495639287727, 0.3240621551414541, 718.7147698922939, 283.727888818607, 476.43943515115313, 0.09208099810821288, 0.05223708139690725, 0.04989347678789723], "layer0_weight": [[-0.04942301224878069, 0.4131228532697739, 0.30640860138401926, -0.14297844667448054, -0.08135888782789209, -0.2626072514118299, -0.24340837268537058, 0.2767727687650622, 0.2714242942984388, 0.1828198212042592, -0.386894519592987, 0.36267132830592086, 0.1156132524471569, -0.13513218037555472, -0.0007801316635675479, -0.31480283010789994, 0.022228813440999955, 0.1267369561103049, -0.0330240674504539, -0.20060392145457667, 0.0021846273782949784, -0.2847936647684668, -0.0889493797817967, -0.11747417503511122, 0.12685867892896519, 0.16337987660424313, -0.2577168864979358, -0.02113818071922171, -0.03279169823171012, -0.18880459516446058, 0.19777499462930806, -0.2791368532451387, -0.38887225216092275, 0.4153391305950901, 0.5180824563013681, 0.15516186339671664, 0.013155579282767664, -0.38939016044365876, 0.030919757699294583, 0.01577756517580574, -0.16323668302963554, -0.06032098558520743, -0.22938297082101114, 0.5152266094037552, -0.0485638576016685, 0.12240447321554271, -0.14911555541944355, -0.0540425485644907, 0.16734941008501864, -0.29012055535309006, 0.20993019802852975, 0.21804553797475387, 0.2848018429537441, 0.2425470325787842, -0.13852409825802656, 0.1702038098885028, -0.12180619646043676, -0.12750715016781827, -0.31506548968809855, -0.14466594008262781, -0.0516525320961685, -0.1453613017298474, 0.05212368781411522, -0.08599618559237085], [-0.13478926595222046, -0.07586233540246912, -0.37626026180750566, 0.20599906631159404, -0.48127020630616735, 0.12779358919114647, 0.3390931930329162, -0.17697664437659336, -0.5237294385646857, 0.19760820527142128, 0.14572730389614486, 0.17268409080712452, 0.3194599579182477, -0.09717522989056689, -0.05500472371415684, -0.22877626727554684, 0.08909957468662108, 0.1800627481533295, -0.06785084583582669, -0.2630733526578782, -0.0987200712943507, -0.08508819833319241, 0.027900348567486192, 0.0220717540657323, 0.3475257281299903, -0.11748052158282407, -0.18788963467435088, 0.2809134627984549, 0.046597590072554235, -0.07881200549641015, 0.13347297454226453, -0.0829542591459274, -0.18189379961845348, 0.18942256324289242, -0.26210657607650195, -0.06467345483566687, -0.2831385229754622, -0.21236786407787173, -0.1831295962386155, 0.12093680175187461, 0.0893249219756949, -0.01380403591525464, -0.27671388032034633, 0.1428499701547622, -0.08270949754237727, -0.41115860130719756, -0.2611174033649876, -0.3843452508364363, 0.14170944011894612, 0.4425212879081385, 0.13468328212344646, 0.16542436306913674, 0.26555066172896175, -0.12303684012927214, 0.15888785182103593, -0.09307308268959144, 0.28877656322762224, 0.2705291155263949, -0.08249583656676382, -0.2800420313851815, -0.19735676293243296, 0.2130224598543175, 0.14594751377740625, 0.21836470097584193], [-0.6402122927629113, 0.01978446684648462, -0.21715005472434143, 0.06547476188645454, -0.3519684090438144, -0.04330012580351783, 0.46140828708697995, 0.22315608255397631, -0.09209759593389637, 0.305179182407843, -0.14841146919000486, 0.13907305189349484, 0.2131240120517681, -0.28000465775930944, 0.07370129180725574, -0.012888870984706624, -0.261623462918347, -0.38417954913242175, 0.08088433426381315, -0.03633468588469293, -0.3352689539580867, -0.1661177022749703, 0.45084390671674274, -0.057128291942876816, -0.14667600512713797, -0.1357489109054519, 0.22915056417157878, -0.29484710687763616, -0.004941626066047296, 0.430775462744552, -0.1429794324976482, 0.18766322665431212, -0.06734813159575191, 0.22709945462006761, 0.02283742246188118, 0.3764981490138018, -0.3182768278964361, 0.18016909640811096, 0.30798442919627256, -0.2669158617243627, -0.6513326222825104, -0.05684260588797319, 0.4380234484180206, -0.02312768438216029, -0.07811245347646571, 0.19975662557945348, 0.14349787180378673, -0.20381945267658463, 0.12584470944681703, 0.01839294681463001, 0.11826348804643795, -0.04059033580785112, -0.1566537652114123, -0.36047328960680913, 0.29826145437637275, 0.6023339634707415, 0.14896866055013408, 0.08945450255032505, 0.5216231872188188, 0.3429292030818083, 0.15973729173789122, -0.19408185214173743, -0.20371284074966486, 0.4214071161661293], [0.03454186147157859, 0.08541130279277569, -0.05745936678848744, -0.3810555248584267, 0.17007774429279496, 0.26799920980089065, 0.1576479124490725, 0.2977887398603319, 0.39175006622940756, -0.6876355709501398, -0.09208016505067179, 0.36569511065640603, 0.04366682041527874, -0.31814824082915294, -0.20581026199028565, 0.11257943317383716, -0.6597382508338815, -0.49780370028335114, -0.12809623071293355, 0.2093598372053106, 0.10045979526046375, -0.11415263297352973, 0.2130276360450737, -0.44001589223497967, -0.059552535989987596, 0.014715179294267192, 0.13643347584946464, 0.29408722705149365, 0.270512880352134, -0.06072230793956365, -0.16947051391653073, -0.27182864043805016, -0.2644422586700927, -0.013770083708068842, 0.11669403522196277, -0.31710030432322195, 0.24294390655760498, -0.11842997330624896, 0.28601388757684093, 0.021480507765413447, 0.17983514634105394, 0.13408234616941278, -0.26009821967550695, -0.07106706279757559, -0.23322582530300603, -0.5632744042109749, 0.11662646016410805, -0.12107975045443166, 0.6954884729250459, 0.26487524297046144, 0.3311885587677664, 0.0376928572119637, -0.23408519593465804, 0.5050974182863708, 0.10384745950600045, -0.08364637973024655, 0.3486983093388648, 0.07540120411123165, -0.3437862047188625, 0.013843044513323233, 0.043497507597335124, -0.15053398200699597, -0.1857606804375207, 0.09209660174667822], [0.20587532291559166, 0.27061229667401426, 0.24017728129596944, -0.5351063830578531, 0.29004509890842955, 0.2805594593614742, -0.1639275446946289, 0.039199596332658786, 0.24058410073636463, -0.007917208160448776, 0.08335655143603095, 0.44736092751976864, -0.1456743435787451, -0.14816159976358034, -0.044946676499153744, 0.18017104505682288, 0.52789115461047, 0.20151940329909027, 0.025415293252123494, -0.12855052108514167, 0.3450802401666942, 0.18541989142904153, -0.058936787122538234, 0.20704029141831218, 0.28723574678621305, 0.13450697653389135, -0.06546360608613434, -0.38315350795903214, 0.14402435332086025, 0.10383665716750187, 0.09928607556295481, -0.12878933726939437, 0.19475131987944444, -0.08840538968216353, -0.5379594457087145, -0.5245028477469894, 0.4105897169942632, -0.429601385984548, -0.15182772672377087, 0.17862547882247723, 0.2899989696659736, -0.29798867321793615, -0.10683542020944843, -0.45673382122734, -0.4580883585278141, 0.026181279237808025, 0.15170743500457506, 0.3038659077949214, 0.13611511190301664, 0.19715749592290605, -0.033231761222531325, 0.15761278164910256, 0.0922800414474174, -0.42440846269801824, -0.25431110876504476, -0.454970410299585, -0.41515879073872286, 0.5622146264737372, 0.09987706768623612, 0.03589184791044371, 0.2451402389724268, 0.2394624594398883, -0.3427752082726066, -0.07311364399744395], [0.051303832973209694, 0.4918192060171866, 0.2327954228428035, -0.30524868176665687, 0.3397238924080247, 0.203598031274463, 0.08919524348528987, 0.2452920496651124, -0.07870656489395597, 0.06089873423853851, -0.21696854484190256, 0.4283783500536688, -0.4026389950522383, -0.45078359931919887, -0.34343720245910736, -0.3210093147145313, 0.38676076822134653, 0.04968194658795286, -0.11820812016639201, -0.32054330358072475, -0.05039534224552073, 0.07629793831971203, 0.07933361095774817, 0.1398420625441588, 0.06554840816990443, -0.03045687724514513, -0.23585584020628986, -0.33769968391200034, -0.19649245964397233, 0.3411524884308896, -0.14869053367245658, 0.31577573700575007, 0.2726019680323658, -0.22884079524139136, -0.2632403310829503, 0.4188624966078651, -0.4513328710558423, -0.17391462866295868, 0.5237307044082441, 0.025095640683032803, -0.3579525357948497, 0.018640480101403484, 0.28415862483604004, 0.21145219127535922, 0.4229800931769812, 0.3153250638379572, 0.2705833582164634, 0.321159589313611, -0.3939036301631117, -0.29239939917696856, -0.34217544451925497, -0.23473840438001942, -0.5097870480335084, -0.03633127067099802, -0.3224408092712961, 0.030169658258947463, 0.23280744050689042, -0.31485634748954183, 0.37443471210580553, -0.1982242500697572, -0.3685923364772993, 0.10378221676499527, 0.021916814189143666, 0.19798738141970754], [0.1532226521635482, 0.12262233213004627, -0.2999494312407351, -0.08001505503408962, 0.23545984938511416, 0.08556026508706048, 0.20573273156529984, -0.0032580369418603074, -0.3290638964297136, 0.33083029689794125, 0.009604961753625291, -0.05301454276551715, 0.19015348471333968, -0.1699834333563669, 0.16693837997976282, 0.19150130760914016, -0.4306014329134688, 0.4917734315819061, -0.1112922977992314, 0.23607266049869527, -0.14026692552618436, 0.30244703777585313, -0.06252629367220297, -0.44914482567834507, 0.055904755327913835, -0.4376590977801633, 0.040818021348455386, 0.25377183133929676, 0.4293803144385447, 0.29654281011721023, 0.29332705614643373, -0.037351806553127004, -0.30666788555750085, -0.502290105558935, 0.33403869407818554, 0.18159672831089566, 0.1528950282843645, 0.3055807636793862, -0.37779466598403116, 0.1276490542444415, -0.3562136794039214, 0.22279941533167916, -0.02379198630683462, 0.31054360938039477, -0.09360316374138465, -0.4877869879637061, -0.5802830740053853, 0.2352333584250737, -0.2694751033548377, -0.06597916689568749, -0.27237840211876924, 0.39317754139688194, -0.3784023640129727, 0.30005843062027376, 0.16368263691365642, 0.1537152670712668, -0.31246640643488816, 0.18968842038476172, -0.20682338527616478, -0.26613274100035356, 0.44434857293163266, 0.4351480347990522, 0.3399565888448709, 0.20619955859096348], [-0.16186356762093249, -0.30777607189512357, -0.07128477077978516, -0.03533689336800506, 0.027985945569175524, 0.19382130459824895, -0.4585504866174488, -0.09098094105484447, -0.015786624177880192, 0.19611313917854, -0.27674809233507663, -0.26263922880793705, -0.3141387478952004, 0.00013056812465518113, 0.495320490865554, -0.030577099994118426, 0.4345876727230493, 0.30465645637876926, -0.1630742963836805, 0.2336360414403562, -0.21901571379212573, 0.08116854891673922, -0.3704476912913157, 0.21323450139375547, -0.14863070086869717, 0.1574041449067743, 0.02166089963790502, 0.2421600378057213, -0.10170841543268128, 0.22130171931861614, 0.45644578795393836, 0.0858014604802741, 0.21734506324195726, -0.16988378463800796, 0.35509195767504165, 0.12103456833142538, 0.3729337670241986, 0.349367500571101, -0.14533081283098048, 0.09018969146584484, 0.36733267060314895, 0.04355730500881183, 0.1072176597341247, 0.31734649041575025, -0.24932115448293002, -0.2766757524535113, 0.004872592309704494, -0.08814355675567746, 0.14047031545581518, -0.3222143334390758, 0.3067566173638382, 0.4923716034487627, 0.00729068135041611, -0.09647930077985974, -0.06118940270157624, 0.3652852435038271, -0.11922647774250288, -0.26407209278488536, 0.05754652817328429, 0.35192329509452636, 0.5427808017626427, 0.15892695717701968, 0.05555216246732335, -0.21169849519357783], [0.15957907246367303, 0.05690488803005475, -0.4046329424156847, -0.052048521564027186, -0.037387599701805566, 0.21846291657765557, -0.053605456916873594, -0.3184102078597918, 0.02927186801061906, -0.05416023750008868, 0.35117704458828397, 0.2781668985011232, 0.20358882241113685, -0.08214445892941799, -0.08301286820583335, -0.029833241461919836, -0.44642666716048557, 0.25804453519017795, 0.2958712190061252, 0.3891067910566254, 0.3080884305713789, -0.07470250097338414, 0.1814021251664248, 0.17736103782598275, 0.2583831451696021, -0.27614678093855144, -0.06367203878359794, -0.13082161382522767, 0.19651501863914242, -0.10763135974419044, -0.43163170553258995, 0.3052467813499399, 0.35329655638926855, -0.18409147172235057, -0.12174901426814666, 0.17172520364809943, -0.12948157321944545, 0.17340239144909614, 0.028707878629192954, 0.4094287380373832, 0.04958603004186676, -0.009047389062007307, 0.13937891316790238, 0.0962007269690924, -0.4988537359048723, -0.4396935825699997, 0.15510136168169836, 0.07944371358259378, -0.12498139799276915, -0.04668567240612351, -0.10480189987988862, -0.2426111648319481, -0.08893099890838135, -0.04397109894066107, 0.05030621916085302, 0.15577423613191346, 0.08020941213696028, -0.4350489815195884, -0.11294959076117032, 0.25201859087958073, -0.2464800795014994, 0.009576479130112711, 0.2914087425897961, 0.15030227462744103], [-0.21509013682550968, 0.8325082020709673, 0.19098469958999584, -0.1626984278333971, 0.1904764597824634, 0.20181265958994804, -0.1633347583830632, -0.20086612358090006, 0.3581460771671982, -0.3429992727200144, -0.026799480153946217, -0.13597826399969973, -0.2914443262936311, -0.3700478547272472, -0.25209929873429304, 0.36228408131142203, -0.012978329896273582, -0.04569564242161518, 0.38255955043475165, 0.10549651879369353, 0.3287385744766258, -0.12799792447638336, -0.026177210438664993, -0.27099392469777406, -0.07824795997882092, -0.09103195280632152, -0.11112335227095833, -0.4357002056354001, -0.27184424521652045, 0.23934353039341286, -0.29098018721020696, -0.03482020850312894, 0.16746735581566466, 0.10839741896766666, -0.25718466411483776, -0.04055847780328443, -0.15852268995843644, -0.23555003691004384, 0.40417317905089056, 0.5176292900578789, -0.3217363459930518, -0.1221990599188158, 0.3858627632976299, 0.0781753082743067, -0.4783169674972733, 0.016921907974185264, 0.27619744413584074, 0.1917997491455018, 0.2876517182418015, 0.08325267210710438, -0.04327144965404054, -0.023023105049963914, -0.40952832182790444, -0.2656215666273297, -0.050238222632985774, 0.2906305949511221, -0.15419964448719578, 0.08373468860598393, -0.45645465976326643, -0.07883327839354397, -0.1781850197444878, -0.40123683577345853, 0.06426769169371234, 0.28739385666575507], [-0.25964626848054784, 0.007679996603716269, -0.31777733153953347, -0.1311563839174476, -0.16977832610595148, 0.1998958029628773, -0.1894278388916753, 0.0012914531155732503, 0.1995741223146848, 0.22263641237165377, -0.3163687753983792, 0.25000178884508467, -0.02336212856810927, 0.49135899057104493, 0.1397122912190948, -0.2389636484248584, 0.013812944738294024, 0.18566748634424335, 0.09550359007967388, -0.020263819032641302, -0.273838651410861, 0.5270783972807677, 0.003299274928889716, -0.01194592836321131, 0.04780868579571349, -0.23983769685308373, -0.3072834928348435, -0.13129407134449733, -0.21773844228934638, -0.05519144579722526, -0.10588672009155191, 0.3246345644718708, -0.10681211090390792, 0.056872957343300924, 0.0688213570497777, 0.4835785756117321, -0.07669351520141317, 0.01463713868618044, -0.010639431248534193, 0.22388334300819973, 0.13318235808193757, -0.2629048376945686, -0.2054951914458053, 0.2339845853846654, 0.34508809485807446, -0.018290538065843694, 0.37752588853136776, -0.1984993760824858, 0.42834573406828264, -0.5018107606981574, -0.07475544933925327, -0.12977889686364694, 0.43162155702400623, -0.11598468504471894, -0.27494898085178016, 0.22341330180324845, -0.2606446332686757, 0.12523535938713196, -0.5083418623759548, 0.07559997313897192, 0.004993255302399056, -0.18135245011959916, 0.011672126845121063, -0.2906834329392824], [-0.32121725204225415, 0.324314968221832, 0.12819726004603607, 0.3637924710344476, -0.2630757882284152, 0.0438280101442404, -0.01977639573545949, -0.07039974183880765, -0.019406144999269802, -0.06780176689591917, 0.07982976959755093, 0.5438064820715631, 0.2936839598091489, 0.3573833250334169, -0.35327199262175185, 0.18187001188431184, 0.1873573827237187, -0.23378264535422885, -0.21638670558591278, 0.11920171475102759, -0.1266393163597431, 0.4237467358250039, -0.47626038929312764, 0.10658245353455459, -0.20394716331598098, -0.1100441030529467, -0.1793978132700067, 0.31894718852414583, 0.01940944026023474, -0.2723322045130178, -0.13518069646871705, 0.004716686053363809, 0.02623241968711817, -0.1557344181214772, -0.08987573239514769, -0.0869666151309259, -0.042742519792727536, -0.3361292039479863, -0.0337108944992715, -0.06249277066105035, -0.12296387727242447, 0.052809613052147576, -0.09345007441750706, -0.0811117819266033, 0.26600216810733707, 0.027169953753586117, -0.22002330042908372, 0.21845840370490682, 0.11828291794272118, -0.009390104045298293, -0.40923283516811443, 0.29496343053227964, 0.05998596481271219, -0.04491033123961049, 0.009848732767123785, 0.11159062624082017, -0.3616510755302611, -0.08085749662894634, -0.2648218198877055, 0.16400785498751178, -0.1679198914734792, 0.04119670868532905, 0.08364396471282512, 0.15014904584332822], [-0.08411642303258728, 0.16226125290817564, -0.0911465304777746, 0.19317841709191808, -0.19686275449672436, 0.14323242607046247, 0.17945109845654836, 0.08788933361551508, -0.04020577234748539, -0.024158347529411248, 0.08674537018211612, 0.39326530795599113, 0.34363145747984714, 0.09535727361753281, -0.1760124998693857, -0.1637656608818362, -0.1553663688686669, -0.025888077780153635, 0.09754219079352193, -0.20045520176362872, -0.09219954513275604, 0.3235205098751916, -0.491097540780455, 0.024408615358238912, 0.027387273134590915, 0.056219447852755317, -0.4070794695281478, 0.4004355518901951, -0.03508758279050258, -0.3060767859698942, 0.19063800183182308, 0.04801839560328237, 0.34914663523063344, -0.20973070280277825, 0.05685051766156739, 0.18075519807219478, -0.047081811205479815, 0.1530791054075194, 0.4870953363784671, 0.20328294644926218, 0.2122682341922842, -0.3105403810758031, 0.5042110953785537, 0.17245071497893666, -0.33169990930966553, 0.38375050785250703, 0.24289883588388944, 0.1326856966989368, -0.09235925424535986, 0.028043126810319542, -0.27264926894770586, 0.08869414455528177, 0.28995007557473024, -0.5807186535244131, -0.0786990340484564, 0.14637906820228008, 0.10586194843149993, 0.2073188945683168, 0.14318837879106244, 0.2094268771601289, 0.30620183988945304, -0.1620334407414123, -0.35589041619164735, -0.03540023550923145], [-0.17023068943442948, -0.07281399161498342, 0.10522836593263238, -0.06289953773568145, 0.25571154653920114, -0.0808914754211186, -0.05855885209964648, 0.13646195341266212, -0.03970358288226414, -0.18918907457876052, -0.033908700671044685, 0.10305446350913558, 0.0695279983469382, -0.18080782744491367, -0.12005839900829539, 0.32958139932099384, -0.3197273688846232, -0.014372349084416208, -0.429236598556121, -0.012788722142767167, 0.033770225907586375, 0.19099373556943852, 0.14348869363172262, -0.2249389096771716, -0.39680352535201585, 0.2052875069137454, 0.09158862956071466, -0.3546804948765234, 0.2905068650576118, -0.047855549116044734, 0.05028014001506542, -0.027529031597308087, 0.15990351673649383, 0.004286995590532589, -0.0591295951141719, -0.13135644470692984, 0.4811770329999054, 0.5203609356759512, -0.21304079847256036, -0.22196859579395176, 0.12508412225148333, 0.22560925158731468, -0.09616374567555132, -0.16642688106769893, 0.1695767553106004, 0.054819330024202535, -0.45390227537976563, -0.059660912668569266, -0.09512591755705514, -0.03676398334174173, -0.2859185327305785, -0.26457661646821273, 0.028651304230977233, -0.07360187814726799, -0.10502402923826704, -0.22833734459734523, -0.10581615126977799, -0.29155398354943296, 0.025293241996576368, 0.3037261482862651, 0.05039593931689151, -0.020657682109796405, 0.474884414296371, -0.13857087489120232], [-0.20549758750530472, 0.1984603134589745, -0.21225462282824875, -0.10503794747464577, -0.2466300586104615, -0.1195036100147669, -0.11394149750888505, 0.011605578833942459, -0.361201006197621, 0.37110071129082733, 0.21308945924662898, -0.22217503570129302, 0.01372805624618587, -0.009704176545105817, 0.0937570671963262, -0.039441921711443034, -0.1459715229876492, -0.11334660544142894, -0.2070075276278645, 0.03230498545237407, -0.2387068457941973, 0.2490736015330545, 0.11235873406122444, -0.20945318824201617, 0.20488477793942714, 0.21391989077278245, 0.2247721110825681, 0.3034067351621326, 0.036655594463594766, -0.4595451820330773, -0.13312635590717534, 0.02102139791610958, -0.12125192184722929, 0.1219573691952775, -0.31858325507677604, 0.09948095401735307, 0.2997889221075943, 0.1131773916851408, -0.27152879279213454, -0.11846507284871204, -0.22033656947497404, 0.32611559970003673, -0.43167737980304827, -0.2646977894874334, -0.24016067438242597, -0.05540673253867301, 0.15197948561689187, 0.0852498111111277, -0.04845320811400656, -0.2512260303011534, -0.12324671634581046, 0.1969380426891253, 0.20461687778398713, 0.01548671475054361, 0.20882567583781556, -0.15696913708296406, -0.054946091787305765, 0.2425477088462056, 0.13415986613637135, 0.033466054896321346, -0.1502169160335827, -0.168240485810461, -0.2009812608299004, 0.0587681239769609], [-0.3349648446213128, 0.08581732907955462, -0.25222715445120714, 0.06545134887718441, 0.10561591044953964, -0.025972421519112606, -0.09757624035759917, -0.3185505391650497, -0.13014994800609653, -0.16986221060801018, 0.21292815771413717, 0.1394378955363341, 0.15094346990593724, -0.06870716234641515, -0.3602416447691343, 0.009005769574649292, 0.19577852908243693, -0.11253189147765201, 0.00211373723537887, 0.13310793507581628, 0.03377691136196676, 0.20192683007762213, -0.46881972117320253, -0.45823184557539764, 0.06695992205338196, 0.015437647408092097, 0.13305644042722595, -0.06939988170678534, 0.13333181752843903, 0.0796708280126739, 0.12108828477349319, 0.2775574314877298, -0.09084752407485543, -0.2929367262924405, -0.13549292134086913, -0.37642135164150603, 0.4150650496784133, -0.09852140886524093, -0.030967569767591886, 0.01900222112908368, 0.15830513651338066, 0.08688636925777637, -0.11702169111062424, -0.023462385567509833, 0.08390775823867151, -0.10617479982947581, 0.20557386704489808, 0.27674965529454204, -0.2868206807238372, 0.021895751369323806, -0.20718955507873665, 0.17897949903434238, 0.23604333219483795, -0.247630505670237, 0.057354940408847276, 0.30839904318428035, -0.5517713931676641, -0.19062705391900092, 0.08576529934078211, -0.22482967489023786, 0.22873487658834804, 0.009585091774786026, 0.23798022826569804, 0.23552086330104524], [0.17727104747304484, -0.007546968692181803, 0.001131857276442307, 0.40072318549812913, -0.1135777196965984, 0.23584300680011286, -0.3348574414949912, -0.17580721708993058, -0.5435885342378913, -0.39155493317266843, -0.04178192351160251, 0.18512391197428274, -0.07758928073825389, 0.2681829409503904, -0.6424343670713621, 0.05760634428299204, 0.006399379070981126, 0.03968963834366122, 0.26357563041874604, -0.043264585188683764, 0.3287671834358231, 0.0774304001605344, -0.38158191762905036, -0.3123885573759619, 0.06977723610751277, -0.5654942838200697, 0.14381768575497778, -0.048044150365020896, 0.3262101243308565, 0.16752288687231925, 0.10837995252852337, 0.15203372867294906, 0.3155277280253011, -0.04606214655773759, -0.28798496857115546, 0.009896703074630179, 0.18122117901394516, 0.38238733464544716, -0.004761981986917439, -0.2789524131683264, -0.04510265798411052, 0.004177219724532601, -0.39314540411800597, -0.4812745417092233, -0.06872850899053294, -0.05983221180435368, 0.10130453749325198, -0.0657319739792078, -0.6506813777469936, -0.15484911630308293, 0.28550275343923276, 0.35337814698986136, 0.1382534511110325, -0.0062592642989329, -0.07821514706841314, -0.09855809442147354, -0.05566245957270072, -0.49261115939294514, 0.13916179908973275, 0.41818366902198784, 0.4745100949850438, -0.06340454340799229, 0.17982893927507185, -0.2313512064028191], [0.28756174313560295, 0.08888239315191158, 0.4271061736648576, 0.020655073893324542, -0.022123571631974346, 0.2930398175808175, -0.3144444583426084, -0.32236398211519457, -0.055332067697503144, -0.3109578732084833, -0.1392246050925796, 0.25455737710565773, -0.21812102794897018, 0.2624193838958846, 0.31766181050531384, 0.11513738860602017, 0.2827758075610094, -0.22068819856603974, -0.08996755009051705, 0.03712077380158101, -0.13020510222079448, 0.059134791061680174, 0.08644719097465862, 0.09761872487712688, -0.17421921306116164, 0.16679864467641567, 0.06756901355482961, -0.004538389404961406, -0.18193911641742394, 0.1188307300993063, -0.1903136678355599, -0.10772698834770429, 0.29537945947993227, 0.4551017487357284, 0.4673204318722387, 0.10985592990816404, 0.07930725671471321, -0.043247916649146866, -0.08899142680941946, 0.09151040967062289, -0.28351600204090494, -0.09427076284904434, -0.09713380215360172, 0.21811936828954087, -0.3850969975264078, -0.38070799651002124, 0.20359273494090335, -0.3648017994868416, 0.3970245367372807, -0.2511512417883405, -0.09993342244652799, -0.17203284947470363, 0.3684139258061967, -0.34123787847429443, 0.17231872970606257, -0.08978742337393028, -0.1357510180495246, 0.2223066911598364, 0.2565164995800005, -0.1791864090691074, -0.11655129898186127, 0.275182402942955, 0.2888474842891127, 0.1405592958421585], [-0.15091411490481674, 0.29465984806710427, 0.045107253950215816, -0.03919206874754384, -0.42052299046991953, 0.11259079777328326, 0.10144375144260077, 0.033942914456044214, 0.12253694035647687, -0.0330085711303465, -0.12035537514349588, 0.07314859157759485, -0.24080887822534477, 0.11806920910254864, 0.24160909621346394, 0.08746992799297396, -0.04985859735805532, -0.2785555837604608, 0.04895175783968787, 0.2420040882916358, 0.0911932308862441, -0.23195911489218043, 0.35460624535868174, 0.15346918782293492, 0.2764167752863, -0.4031404680967472, 0.22723281918637092, -0.026624143605502568, 0.14514897435195673, 0.06875620072142051, 0.31818133216513556, 0.1383482735976212, 0.011623876600446911, 0.26028276594133826, 0.22654646453201222, -0.1756605079837086, -0.034202037833273455, 0.33757318032573347, -0.09109877142073519, 0.1394459822342365, -0.028497423656202864, 0.2785090780408611, -0.03983824128131564, 0.1825586191990575, 0.36976380747965554, 0.4243558944969596, -0.0164573643751284, -0.3717197533830764, 0.27876680339894255, -0.43130184388079634, -0.29232336706639694, 0.01720374183479197, 0.14446626641372232, 0.5086436451761298, 0.19977872182412493, 0.28398983233997244, 0.05928407446975298, 0.38475506090026745, -0.04162660518235917, -0.03495034997099037, -0.041276427039766084, 0.15028857814691704, 0.2192716649853016, -0.16631606444923475], [-0.3176828524277836, -0.13405984411310576, 0.09477467355155635, -0.3961643375750462, 0.20493470221495674, -0.0662805402323647, -0.17140480265357974, 0.18724107683279895, -0.188479642003319, 0.09181411825560523, -0.008697586847211215, -0.17316227012259872, 0.32236936683635337, -0.03386977430459457, 0.09469777050107614, -0.02693930996810438, -0.304188773412262, -0.18765731827493182, -0.03095767770691108, 0.08462686943872305, 0.23831414572527182, 0.0660197381227101, 0.2269717263494485, -0.10949546863289156, 0.33318420636462914, -0.12181890731286799, 0.17086449656900254, 0.27242208915699895, 0.4130205856823905, 0.10246649398225935, -0.2443520835555593, -0.06737723765904154, 0.13605599946951666, 0.003020891248876444, 0.05153613421273285, -0.1618337068928388, 0.11817367112237748, -0.10485519923115241, -0.07086517385157089, 0.0559397537129863, -0.13537552539338565, 0.19154548033172974, -0.48233333775874726, -0.06169940282345972, -0.018145029763031572, 0.11473560115150638, -0.21996100443670744, 0.04479264489811605, -0.3131920837480105, -0.1528011081735588, -0.10448987379624304, -0.00891233879737897, 0.2887055770840873, 0.22386691328444341, 0.0694929941813208, 0.14753677368583143, 0.06909577211743002, -0.2195100117391749, 0.20589412799167112, -0.3227588730389504, -0.05297971622606794, 0.2893556392804169, -0.22619805782782393, -0.12759365211459842], [-0.05400923215726753, 0.062393138038105325, -0.21755014237378364, -0.37764728980068585, 0.02876995751044043, 0.036130674581366984, -0.21146165941771303, -0.05660126639566947, -0.4991251397012232, -0.2372475840348252, -0.14007321057845692, -0.23555035585308243, 0.05425968881354806, 0.1743022850876663, -0.0007966964705520037, -0.1259015076998054, -0.21631831186068473, -0.39898381788221854, -0.12759040119374018, 0.25267233080899826, -0.36371857876968194, 0.4665959664162002, -0.14592579520734095, 0.023629479435443423, 0.2146146833662074, 0.1682640134008093, 0.057952969238745336, 0.14251373882239535, -0.4381458415641147, 0.23341767108040995, -0.2788881129709775, 0.26089038576941226, 0.012398114853446435, 0.1886928771048624, -0.31268120047356945, -0.15449404912521847, -0.08540871703669943, 0.01926850441384406, -0.371808301716824, -0.056085761905626405, 0.04053331415794544, -0.05173001533186768, -0.052908515611164594, -0.34307933929479545, 0.3795536931038495, -0.37775757492988776, 0.000610959873852245, 0.2746233695175148, 0.014934433574255694, 0.04462142151108955, 0.07958831405387107, 0.3122405260333941, -0.002092657103505677, 0.365191893742391, 0.2112346641902994, -0.2862002027207201, -0.19695962150466656, 0.04637824717163187, -0.37147373086820945, -0.24037951274432914, 0.03553548352077112, 0.10079783934781132, 0.24813237554706932, 0.20336384187700238], [0.2589775796375242, -0.1792999922803231, 0.14242529041305654, -0.2567537126826832, 0.2706158489404139, -0.3075319888766954, 0.1602056438220367, 0.26333512221899796, -0.03235495617100232, 0.22432583779812082, -0.00178993807404022, -0.04310471680789676, 0.34632662319714186, 0.13638509859345258, 0.011871749382733476, 0.14561511585682269, 0.22609672670416947, -0.15754074071477117, -0.05357093788518878, 0.07696162881008566, 0.2602193563140625, -0.5164478754227365, 0.1213615650115494, 0.10538041495824964, -0.24760765501698112, -0.034239149553915216, 0.17074971521194598, -0.1047690802930301, 0.30805176601402706, 0.15597893540771865, -0.02054331638294483, 0.3280699570768287, -0.1752440139280879, 0.24338100864041837, -0.021851797928805546, -0.15047146067175993, -0.21128336296037448, 0.016504811355643398, 0.4475855129980474, -0.5274777629722784, 0.3359001426025527, -0.39562089684057106, 0.16289138753128513, -0.22593033249727448, 0.12317469410566885, -0.14221911896905076, -0.10035083800649945, -0.15394496072712008, -0.04117584165673223, -0.20073550022430817, -0.0575897852976392, 0.18291830766454242, 0.3299033611613413, -0.29578066411118403, -0.17729084665051298, -0.13443207834203091, -0.030586394699028602, -0.035611375700961845, 0.0015951525405764981, 0.21723727608297314, -0.19353090108050078, 0.15478241846969715, 0.10553286501289241, 0.39757595032405946], [0.2073096906816529, 0.20386650902349346, -0.1254533158131208, -0.18921668362942415, -0.04217844026427271, -0.22450000661538982, -0.15757603173032728, 0.3499287091726359, -0.2603004109709356, 0.013153235233182035, -0.04107249295999568, 0.03714102422506256, -0.18561736153608976, -0.08428719332725704, -0.15261534745575495, -0.13559304665377608, 0.38072578812921654, 0.22726569096570057, -0.10548755452078072, 0.1631911994807085, 0.1960870282143076, 0.22665987974504542, 0.21383771429834927, 0.11287331202955252, 0.1067240945424502, -0.011355973731638885, -0.260345113446731, -0.32736026980523436, -0.09860576013153935, 0.3307081513562207, -0.17713369670501597, 0.24549263503055102, 0.653158092053795, -0.17257496000234138, 0.2008111787519755, -0.03677744959438407, 0.18237570629335917, -0.05611273839854167, -0.1013803312110824, 0.15284091505283637, 0.24674295202619206, 0.11421072866562768, 0.19537826149703139, -0.06702337258313829, 0.16292335296925708, 0.13044982372992053, -0.24826913028769862, 0.2889523430049834, 0.0888590475668298, 0.018366241640191835, -0.30702331853466236, 0.30998871814717716, -0.13162969722257212, 0.1862842802331154, -0.38610535875970675, 0.21400342823437984, 0.41155489891888053, -0.1614436463177582, 0.05613618486383693, -0.17210876495095975, 0.341859626330439, 0.08512657773115954, 0.25627877188031983, 0.18580521156133437], [0.3656385721529102, 0.12752785101708758, -0.14797540590399363, 0.2125474358078463, 0.26866766521634194, 0.35405964773958803, 0.16143818218191408, 0.1998955307759792, 0.20758609988345061, 0.15124434494468916, 0.20363125135631982, -0.3443380693023886, 0.11034188890434114, -0.147698899189051, -0.15291303856449007, 0.24049373634583812, -0.2301585244006286, -0.09750890552319999, -0.4085916228010428, 0.0004935720639262248, -0.0005580510706675939, -0.08498803158370578, 0.24088565875279738, 0.2424636509180085, -0.17593037692115468, -0.02847652967831588, -0.22303481896715063, 0.16731949773828106, -0.006498114191913053, -0.005704159423486201, -0.37135030117939777, 0.03911180779105671, 0.10385571681059062, -0.10502108177470323, 0.1772998871718162, 0.15498347621323688, 0.14046230798410717, 0.3434566124330563, 0.2887918940935308, 0.05614195029947379, 0.3750666289435055, -0.2163401685137583, -0.06496335687075688, -0.04278377595412242, 0.207562495162672, 0.14932959773917717, -0.34533221058957003, 0.2063595199727943, -0.3916002377599465, 0.204244413197262, -0.1527023652695724, -0.10563490178673958, 0.06692102531196055, -0.4433829050598188, -0.21044046199023494, 0.16246892739518065, 0.19752217950018325, 0.03101733912052982, 0.07410201197235744, 0.009668141272914509, 0.3414859067553565, 0.0714312734260213, 0.0031737914222505006, -0.03773936452975855], [-0.0035884557372205983, 0.0855333120876354, -0.4637434825085229, 0.09317880467321599, -0.21202081752577662, -0.28567792413078497, -0.07341035382630023, -0.022000258114018147, 0.208216626875126, 0.2074561673847396, 0.3067587653866148, 0.047598367930809994, -0.3429504713353413, -0.15812952941945177, 0.19542442461447432, 0.07635296434969588, -0.07368668751688387, 0.09775177295066437, -0.3278276521832407, -0.1269796021863429, 0.1623184669984595, -0.00872777800996039, 0.30722320358884464, 0.1959073973682685, -0.326430897885846, -0.11908499364713498, 0.18238032745187147, -0.009558150116374864, 0.15565830373442208, -0.07220608672065082, 0.043984279847403766, -0.3829520067373531, 0.09620310832387907, -0.13524367767579934, 0.040817057743651894, -0.08760145704249987, 0.2714164664114544, 0.10014698930821991, -0.35408932316333375, -0.2696104116919223, -0.3544032317193292, 0.09324696044962319, 0.04325772321204231, 0.15374820859336769, 0.1649880885485962, -0.013472803376484458, -0.1406535281412369, -0.09446515115990123, 0.3207019536185217, -0.07722156035817586, 0.07406478818790542, -0.028654561262057555, -0.01997905858723089, 0.21108744355494835, -0.12445421444227389, 0.31615299954570936, -0.2031811257778349, -0.005482492213373368, -0.24063659594659442, -0.07490905956887318, 0.039143322359936825, -0.34243065826766145, -0.342603327041311, 0.3864016611807281], [0.008450630275084236, 0.0353337664070139, -0.37299378461890426, -0.09098012785131976, -0.5367302831945394, 0.0780214717565601, -0.07741931960028935, 0.6007498778162669, -0.17300400705391175, 0.3203899770057939, 0.1796924945221715, -0.1461320338410252, 0.20298084886136017, -0.28583743467870887, -0.2600165173883407, 0.09698082278444986, 0.2232235122070448, 0.02541446648792743, 0.07979740604630335, 0.1331437697682743, -0.2093390524170397, -0.3214255638949726, -0.021442301440934976, 0.5278260888355898, -0.1517863524199709, -0.10482454888391211, -0.22880701990683142, 0.208099803486962, -0.17045056519547472, 0.2661086978648401, 0.3702740860507071, -0.18348045839454924, 0.24850196162636418, -0.010682104340190875, -0.024908229590790504, -0.10345555357637763, -0.04188014664297796, -0.03509596367261131, 0.34460177309704126, -0.04875494946812276, 0.014676346206313945, 0.17094662245959197, 0.313587298736859, -0.15498022794287772, -0.2502912262189846, 0.15350993879874736, -0.2630265979203362, -0.20314776357261513, 0.3459567782456411, 0.08083243232385964, -0.15379400091629053, -0.15238012555176042, -0.0650443259235819, -0.19678220267963376, -0.10650221130750666, 0.5227295195807566, -0.16158906163962017, -0.06405241459492217, 0.12397909330326123, -0.09324139985368866, 0.12465764833791987, 0.007058363213122436, 0.33766534352740524, 0.2563849698565756], [0.48321976484014334, 0.07377184356540417, -0.08483853910893828, 0.16478430065741234, -0.16904583049682545, 0.17867812059878324, -0.3548328286766339, 0.21577945825719172, 0.04843262015689372, 0.16233154787758336, -0.009171386143883731, 0.0512446988113298, -0.3386177384506182, -0.08706347908489646, -0.22457647543590936, -0.03836977704826077, -0.06058564458297857, 0.09856770028270356, 0.26539552614894657, 0.12299526509157586, -0.16588564245454474, 0.14678403649120433, 0.33069957509856546, -0.04241715596777774, 0.10755239636140054, 0.06524230738721051, -0.19505190463400343, -0.08381108954039818, 0.01244637944471775, -0.14554669318497776, -0.045050641085833926, -0.3393226331014323, 0.003308263180331907, -0.22853838740099602, 0.1258625692191605, -0.06716699336423186, 0.19587574005717925, -0.23152128147360626, -0.24711506193337596, -0.20168141043964788, -0.00758735025961836, -0.27732445461889443, 0.01881308628407801, -0.2598712571137993, 0.07086809772259914, 0.13607944377951958, -0.24157569596088738, -0.23799188444186156, -0.010420399088350385, -0.22640473811704268, -0.3057002262674105, 0.40323699331081836, -0.1268290901599069, 0.1286099487311176, 0.09250141432687382, -0.3117078257559723, -0.18060137600140555, -0.11179146751076507, -0.22601744921313377, -0.21746845536870038, 0.19042871223390742, -0.35675656357132696, -0.16305153691267235, 0.11731357014210282], [0.29310539828042864, -0.07918676436849162, -0.187452784638067, 0.3106472230008241, -0.054392029707811096, -0.05166802705530263, -0.4774399878144108, -0.015306346231382295, -0.13121681520968184, -0.0547261566825525, -0.011877517775969768, -0.33245627339330047, -0.005054289011721838, 0.1079829066096253, 0.031086053407530973, -0.2444421969995548, -0.006529534280134062, -0.11844804165984785, -0.18935114866924177, 0.06311407235724949, 0.15778288709693408, -0.17439780922723594, 0.1801295207761573, -0.16134207973190207, -0.23931357084751725, -0.17914320623339255, 0.5171087352740031, 0.005071507493913748, 0.4000421699935375, -0.027837539315337296, -0.3724844594986529, 0.08334736785742618, 0.20633125274296682, 0.1384668244968849, -0.2535142445882684, -0.15574138336845633, -0.10538548124999206, -0.19551287558333436, -0.009774393250408535, -0.06461172951222427, 0.1306111637076822, -0.025254931559378385, 0.05862799839266071, 0.03888858446431309, 0.193006099940797, 0.44435012723016215, 0.06039438790547067, 0.05454307971508016, -0.0968837294884551, -0.27433742275275036, -0.24335374921839426, 0.3193013319667354, 0.01969652735473569, 0.25662097658989524, -0.04434561757271652, 0.2839884680095273, 0.012545507973819777, 0.46160589167042654, 0.04359610472157587, 0.02026777149228112, -0.22180670210860937, -0.2534060391323427, -0.25281679034806204, 0.13902414226552168], [-0.08154075655214414, 0.1605857619608708, -0.12281276470931744, -0.1270847791996648, 0.2398766827577556, -0.1657675817412776, -0.3115837256443965, -0.23196242551026675, 0.25058715507472323, 0.1411122026283443, -0.23067546374632714, -0.047123973840094716, -0.1860154066859183, 0.0994229761170924, 0.22061223250603634, -0.2883266278493998, -0.189739515255092, -0.3356432382122619, 0.174571304199654, 0.17420965430480523, -0.16058025249885258, -0.2929887185323609, -0.03945705923426278, 0.14200822951971032, -0.0057374542014535035, 0.16477786637720743, 0.052844376018991134, -0.1544908247299736, -0.10467961905599535, -0.22078342452620742, 0.2165968745366601, 0.03907018545302825, 0.038732308994142574, 0.11139311109572837, -0.1505667648001873, 0.2251565510388276, 0.03991838233147351, -0.2547941767943498, 0.19628990467630758, 0.024683581092592305, -0.0937273688767951, 0.015507667775222826, 0.11086596475399256, 0.2348774973944791, -0.12218814080718346, -0.011046669816137476, 0.24072322649140912, -0.15302064263042756, -0.09017408155407591, -0.160895596426472, -0.1135516184295561, 0.2528376227248812, 0.20704576047851334, -0.19780234348301814, -0.27077163355712053, -0.2236023344600627, 0.19538789289729494, 0.11066192150715573, -0.11938795099579963, 0.129310749404743, 0.32885316314787555, 0.02255291113930153, 0.06373403290449209, -0.25557510631044034], [0.2838778838344331, -0.05246164163474072, 0.2574148781464324, 0.07360506991189011, 0.19463704523980616, 0.14199581089636498, -0.4053923321859317, 0.04491925548321275, 0.149923206200525, 0.21091694506154995, -0.3753332878419997, -0.0410429691204824, -0.3465434369735439, 0.05906077267375695, 0.09664023990432684, -0.2588569101295679, 0.030644305551069766, -0.004285382374624355, 0.29135011939111677, 0.0071004690226908985, 0.10322885131362362, -0.019980574704592424, 0.027782239029861287, -0.03643533399867803, 0.17644976291506204, 0.15840400472805327, 0.044164411062372344, 0.026604011027882887, -0.06252743518934363, 0.07650323046047025, -0.20719310130827084, -0.23131398434112685, 0.3074887478787408, 0.2082394869287738, -0.29883546689753093, -0.15382761180255103, 0.04220110955036516, -0.31819852620850064, -0.09698653911849606, -0.06730875222706537, 0.06027326624728273, -0.23859312177901446, -0.13239972981340292, 0.05907517894099323, 0.06827711434061146, -0.1670695588649336, 0.0856554603494873, -0.22954114444860743, -0.024102578972914526, -0.350612240861389, 0.12743482502166856, 0.13468510578696774, -0.08365622573157853, -0.1580831222330698, -0.22267905121289455, -0.027837467924901417, 0.23700464367130475, -0.008318604383298457, -0.09629865791922554, 0.06414028820380656, 0.3057565814161061, -0.13676566849855404, -0.20615877388576268, -0.1854471654113301], [0.08110496113485054, 0.05578278641638179, 0.4121652062474406, -0.15933872157127776, 0.27954552427288837, -0.34298494428292203, 0.07008050661439055, 0.1433249665544269, 0.06731316185336034, -0.25419715334710524, -0.08728204794024023, 0.153166079124003, 0.04477954918610075, 0.0894578773326063, 0.16623233757968048, -0.04794794788123235, -0.0841383355742036, 0.1878181257991217, -0.08000946049809467, -0.3831828589390027, -0.3228619233153688, -0.28859373392421694, 0.15619823090985932, 0.1738769010582009, 0.21873418476292825, 0.08761795350095912, -0.1953461605705748, -0.19897787141983586, -0.2333576643473405, -0.15733062110190202, -0.22992559554247974, -0.3384828223538794, 0.3015946125873141, 0.43744554618648696, 0.24883866540720795, 0.34034682663576943, 0.3000387278904664, -0.19519828147474644, -0.12776120567933882, 0.17451044634520393, -0.0805499478736143, -0.03171237381919267, 0.10411476326777974, 0.11992960940786977, -0.05303852309142547, 0.21600422782531842, -0.22391181619415895, -0.20107268109607607, -0.04656585375114776, -0.4659249128851418, -0.35010167723641306, 0.07552576466923637, 0.0281196639532083, -0.06385943695930994, -0.2921686471967469, -0.10132404574696045, 0.10283828792178891, 0.1973111285728068, 0.22527698813064975, 0.29904533281391965, -0.26668464203972503, 0.22938220932117323, -0.06916127116148672, -0.12841624782006422], [-0.1776987638546288, -0.12735536650147025, 0.06819589350514954, 0.30949083875915456, 0.12011284124483432, -0.17518425789930556, 0.0806899736306119, 0.004971594014922224, -0.13791237459478842, 0.0015357672848329241, 0.004875285238280962, 0.09101248848018444, 0.44408129262351126, -0.16931886018451894, -0.16624208195925028, -0.3639407452957849, 0.06919335890734153, -0.05820603013940334, 0.28689427117591554, -0.3606622151815273, -0.20063640872140176, -0.020519604904712777, -0.07262280424454914, 0.40065822425931313, -0.4217474364720268, 0.15092008716852517, -0.3400265279465881, -0.31220534914655185, -0.03656601888952507, -0.10556236709079891, 0.03904041384871638, -0.2660837304945214, -0.11434138573218254, 0.3826924480287815, -0.2980760950447338, 0.3176581243061215, 0.727315554638882, 0.03804103546264683, 0.08971341565197004, -0.3641491603062913, -0.018827457240194502, 0.029645899669216283, 0.10267571597784159, 0.46260475004369966, -0.22991858021546674, 0.40353892092534754, -0.3906558418387522, -0.1371111484105295, -0.33305372131661237, 0.010495154116807386, -0.15179786296956088, -0.10954164707010909, 0.21693884081039919, -0.36205865716689845, -0.37726068215840014, -0.1540059034120809, 0.2796718330140914, 0.20969051217375945, 0.10880086924492009, 0.008024063099457829, 0.3607840780714711, 0.3429420219430205, -0.08081679890779807, -0.05965196518180819]], "layer0_bias": [0.1475408223224862, -0.015263269044014666, -0.061106115501957374, 0.047054443968482365, -0.038873503244122025, 0.2997346272433073, 0.4395822080465621, 0.23666443228924716, 0.19704689346595713, 0.1383602843128229, 0.20118866621029843, 0.18851330204868041, -0.08494928812364605, 0.1261278581108552, 0.29911008623014007, 0.07608571575297442, 0.08160190624919997, 0.23465500454411453, 0.0011451327870259224, -0.016640805664863808, -0.07041738615729863, 0.0703219056077981, 0.3988580302949587, 0.17664243899157728, -0.09469296200326803, 0.28630887442871145, 0.4131736923251456, 0.25570391027978023, -0.10250491424878065, 0.043804694820871994, 0.3807570811176672, 0.2245727235084182, -0.22960653802104433, -0.2929368836188656, 0.27853931401736604, 0.4684426953863378, 0.27327342679672934, 0.0641510290175259, 0.04452343361256816, 0.12603817772791803, 0.3686296557492727, 0.06986299137510996, 0.29758858092167256, 0.515295195670094, -0.11550886538532895, 0.10171253354944279, -0.00799954095646748, 0.14753768714752888, 0.12905720660576758, 0.21955759231874064, 0.2182430211137028, -0.18111620808907955, 0.3115323340652781, 0.31430190878616515, -0.07919203037772869, 0.4226330941265841, 0.2599170073110758, -0.2628258076213554, 0.23842901669473188, 0.3166750602650005, 0.1378440667764998, 0.41830475151356206, -0.06788196234672872, -0.1682708085246069], "layer1_weight": [[0.010783502170577816, 0.19411961468746092, 0.3361491647473054, -0.36516146464651605, -0.023558455134136454, -0.025746518955379494, -0.12069788030628435, 0.21898650851521492, 0.20576890953968258, 0.04583344015638589, 0.30755225239170697, -0.07122014057254979, 0.45001436828133595, 0.17559447934355837, 0.20055963151971765, -0.2829885931316398, 0.12315041327732772, -0.25215760251998626, -0.20443393390421175, -0.2727865719548278, 0.13403029329245297, 0.01640814193934098, 0.16035959116045317, 0.21939713919251286, -0.24795440772071445, 0.3257969336524576, -0.17152038679338294, 0.38596275934610785, 0.2803604507731181, 0.017230403069619475, 0.26627990788476225, -0.08587871432396206], [0.14746684565577084, 0.44763230578984065, 0.07298704771351047, 0.0352873258127524, -0.05489546608215175, 0.07685451189663774, -0.03609916304456545, -0.4127551760465809, -0.04990935599367839, 0.059696067016538824, -0.12442724869417232, 0.0018088215439100302, -0.38810345553144204, -0.056256192411081526, 0.33969612937709015, 0.5008217827657135, 0.019340548175083145, 0.3016360662855692, -0.10378808498801893, 0.25638263237097286, -0.06277327588871102, 0.5177634076430637, 0.3944167525492212, -0.3869381391623374, 0.3199435256824249, -0.1440300691748811, -0.48716330711961, -0.6156881712568261, -0.3421132789999863, 0.07494990250707663, 0.12021141174872706, 0.12072362531625438], [-0.2416689250995009, 0.2864642190997308, -0.0480066874619677, 0.1552822351277817, -0.16944823868015293, -0.24122693482706603, -0.5437819876247529, 0.07504229101651572, -0.1921230082684582, 0.39758155813906054, 0.07497369515781065, 0.4247914035260109, -0.11601914299921791, 0.0942439323780149, 0.0850066735707294, 0.2719517444987757, -0.12805822204003475, 0.08755388213311022, -0.25754996981024975, -0.19872448674353577, -0.0333498202692358, 0.29440096117413245, 0.24446738010356817, 0.0053620413232532025, 0.5716109068861597, -0.0808984913288596, -0.01810081558517231, -0.4162097535016078, -0.1416345691678591, 0.18779072627973273, -0.09351774368617707, 0.3608124124393638], [-0.10455556683230882, 0.03906160177768062, -0.020102177036944658, 0.41320942144582734, -0.19126624035001136, 0.4756505008331912, 0.3807119505922162, -0.18557060839794462, 0.04935656696280282, -0.022574821055986218, 0.28684188631000523, -0.08768929031476513, 0.15638499614445703, 0.003795128776062785, -0.4953350133384841, -0.2504794697001562, -0.06203389913998444, -0.07604268550309944, -0.06637160344593915, 0.0835206953071567, -0.22951759486076875, 0.08851071885127601, 0.351680305887239, -0.26580142261334305, 0.2771805620619777, 0.37891716961697586, 0.09216029161218924, 0.07308351964411149, 0.17773932182585064, -0.24069273797819096, -0.5404720349959181, -0.1864606396973751], [-0.14149397847490117, -0.10110403941913193, -0.05448238115114909, 0.4211193988251476, 0.703057379819525, -0.030360509907481802, -0.54139734486217, 0.4633637180857275, 0.09305877012566566, -0.15919240225218445, -0.2752397941227915, 0.5782522402963728, -0.12337887765112043, 0.544349952809409, 0.3897881384717594, 0.0925577548644744, -0.18253655793575707, -0.09208499456094414, -0.15820638301942055, -0.12430995062409804, 0.28074663744741923, 0.038172118478244914, 0.3475021975320165, -0.046945467833233084, 0.23584976094693458, 0.3436787724220492, 0.07118607235350638, -0.1969785677031231, -0.07883414434358708, 0.045242825148053376, -0.16048185492755287, 0.16807110847856693], [-0.014062446817530175, -0.1854973437031386, 0.2712541462416196, 0.1934194241722695, 0.18062378117866493, 0.08503669320758664, 0.164756773100683, -0.17804195789016122, -0.11357322916980396, -0.13234134237917738, 0.12206204004372158, -0.030032089327990168, -0.3652401448231594, 0.022578779224979178, 0.4167535787659093, -0.07207599324068747, -0.09350495904582283, -0.17913261126181523, 0.03518196103364425, -0.04689510962250226, -0.13592692830410663, -0.02314714894745457, -0.25117760568304504, -0.23135279475745668, -0.04326387373810178, -0.2196337281406213, -0.40326514736041064, -0.11931644212535075, 0.3109823006268706, 0.08066185703846028, -0.11567210793558809, -0.005318133859028157], [0.28900475745769283, 0.08317290464189933, -0.12266198134644504, 0.2006838511545715, -0.06019364594652332, 0.013634175520821409, 0.19746579849965532, 0.2769418582457376, -0.09798441231651707, 0.32802805785703687, 0.4697404331447432, -0.45722553663871734, -0.09402417650162773, -0.10898220492867687, -0.3093865001068862, -0.08101470816829197, 0.287474529711082, 0.285183809824914, 0.1367913437383491, -0.04359732375553168, 0.16193102642564383, 0.20564006665588047, 0.2730693431443598, -0.137123073625932, 0.1465127488619051, -0.1713266621945652, -0.2088225686435337, -0.030446490412118464, 0.10352151227126835, 0.053262629683139516, -0.4391656333369701, -0.08407178782988357], [-0.055223109222528086, 0.0022561738201366615, 0.01106643127203747, -0.04895129594392918, 0.40308543455976487, -0.3153585234139767, -0.3976738274720071, -0.01867310737445214, 0.26627931769046237, 0.09800615295477325, 0.19002964541526282, -0.3004332010764913, 0.22358316104805276, -0.33795142100670283, -0.09902442926989527, 0.27303334277781127, 0.18368469446127764, 0.4172789158611977, 0.2632027883794192, -0.05621792160061667, 0.28743013808403833, -0.24188904981358822, 0.14220756854059713, -0.22599428672768945, -0.2228465373623613, -0.01695170918969589, -0.18080095171884675, 0.24170570474064762, -0.1113084556915938, -0.19959216548194347, -0.06630820752404812, 0.13158919685734638], [-0.24226106568924186, 0.1968129581359385, 0.07663593245647086, 0.18748633158184702, 0.236902478803373, -0.1114041185701719, -0.14116743379928368, -0.21309212326890156, -0.14708138017412276, 0.1760223528403159, -0.11903243995619588, 0.3365519417172718, 0.17635312574478335, 0.21459205551602972, 0.29048787681917954, -0.057674881456125, -0.15290020375164345, 0.19514968134665417, -0.031189399489437226, 0.2620979608672884, 0.0945508428948935, 0.30953732013373914, 0.023536123367313012, -0.37317887939786043, 0.03104415770897534, -0.14247304042224665, 0.23554612925885562, -0.047191041112944684, -0.08183931490322861, -0.15115629665423863, 0.26895858164259245, 0.22111583735755264], [0.0979491851329701, -0.12930356187099049, -0.03158829446851633, -0.12379412179100979, 0.04305478788517684, 0.21988975907038408, 0.1926108295824997, 0.06626738778398236, 0.4605240589550177, 0.043972066941649436, 0.11280249837893118, -0.28551304878377837, 0.22249757140607196, -0.3827226776196583, -0.25550803860421384, 0.36613535805497543, 0.29309710572865044, -0.19348821992838106, -0.18550840296401064, 0.09374897631867439, -0.4995510507305415, -0.29689415663262925, 0.14846784287292447, 0.1188579783774721, -0.06731779275714776, 0.32046262242513757, -0.2705493012341552, 0.5410462042117861, -0.12176552134943745, 0.08815114642033435, -0.057591553950698475, -0.1182661252214302], [0.34294459908767616, -0.10276018503540313, 0.41692121038159896, 0.08184792624599842, 0.002197645327691501, -0.06849505200584369, 0.1643597065939757, -0.12822365545949202, 0.0024782977908458003, 0.006857564973614893, 0.3016744866854937, 0.07982033682468745, -0.029510234787118887, 0.041355698256914944, -0.275608555370299, -0.16014122690661262, -0.12609009816639288, -0.057630457444106456, -0.34066976338139204, 0.28216954174707976, -0.027085655070583643, -0.10254980340151576, -0.064730200111498, -0.09083127086886959, 0.06474478076401088, 0.09545003189776259, 0.0024183096475499056, -0.2245181906350338, 0.3482149283868488, 0.20271813684927031, -0.010367967269156361, 0.041584522128069595], [-0.02275856023055067, -0.04441335151614665, -0.005438943728826095, -0.031659616773690884, 0.171177201660317, 0.041689168868644384, -0.2309936934620867, 0.3965586289198684, 0.2987884003429329, 0.19306818041049675, 0.28621519825897723, 0.5996587400564097, -0.4546436243928, 0.31337331499861093, -0.017179658611178022, 0.20877758511505326, -0.3438453931630843, 0.27006455939151475, 0.3058727909382499, 0.07822555218302289, 0.12561379033358472, 0.21120196807885186, 0.15053940883842043, 0.21635386835728634, 0.3437513767762471, -0.17364463323961993, -0.8799760144729358, -0.2477487909444677, 0.1121525306471463, -0.11807360136264375, -0.0025936200979716443, 0.19487550815333154], [0.19501176358049394, 0.6150821771101251, 0.3571555978107163, 0.055126362848558666, 0.19255250032085278, 0.10308431964814403, 0.191630660467248, 0.2635127627395389, -0.11782157861735004, 0.1624609989201616, 0.36050121130604074, -0.20249095287734453, 0.06113963658535828, 0.2393115781722507, -0.2807098019062125, 0.3870244443020513, -0.07414783982709466, 0.002583484492504879, -0.03594483181300494, 0.23753018824687108, -0.3281735674912475, -0.25568791921017575, 0.025726766060368146, 0.25210202381455893, 0.24980239469291887, -0.15588124749469073, 0.09416770237795004, -0.0861874877916262, 0.14044199912252797, -0.16926023980910126, -0.20371934875654987, 0.19285912488784052], [-0.2256825542119354, 0.3086725525885899, 0.17931614410466773, 0.47926204410559625, -0.17933070828237324, -0.19538629665807278, 0.29905860983170895, 0.41126738516462474, 0.22686825202939825, -0.406696599576029, 0.1238920191114729, 0.3542769069771204, -0.059548705342194246, 0.3378808274267868, 0.3534763376756665, 0.17091228439849987, -0.24147145097133438, -0.22260374797750687, -0.3102163795206154, 0.03726298832223085, -0.07906650403476918, -0.004139499626752923, 0.12472493382778008, -0.10468545996604418, 0.13871892827663634, 0.37436427573864056, -0.04944925895609742, 0.177168829244732, 0.1506300524911438, -0.08432648589020181, -0.29436799456529744, 0.032251576480291526], [0.27149881771068357, 0.21067912745382847, -0.3219031826256106, -0.2571997271414332, 0.20624268717430055, 0.037500718432701814, -0.10990806715875713, -0.009772098547844688, 0.39413246810583824, 0.47537746110844575, -0.15675474605650438, 0.3513557532154398, -0.061323805650336884, 0.011868012132272817, 0.09923847160464129, 0.20061544708137, 0.22728245572393235, -0.12185608644476273, 0.05968952300031808, 0.35119970803044215, -0.19031812567846468, 0.3919043818803665, -0.14958355227306996, 0.08062827307746957, 0.19976508175648647, 0.2182662528118067, -0.0668105480965672, 0.31059242350944527, -0.0771222183499974, 0.03287165226878948, 0.19962850245424366, -0.06524550843683251], [0.004449094921028181, 0.1089700395425232, -0.03932192330849501, 0.2558713629235704, -0.01632831986449004, 0.10767947014154224, 0.012890783054758867, -0.16074603069857982, -0.007280397531224418, -0.3633452000349694, 0.26408223925709806, -0.10408535551788285, -0.20984316825262359, 0.09584011053557256, -0.36596930217137935, -0.15676638333066176, 0.08711461593671777, -0.22450737209567856, -0.04105431454112409, -0.24028357206109105, -0.08573259869121445, 0.13084043650692637, -0.09647812599386461, -0.21931874346247357, -0.17166833274584206, -0.14189747249827026, 0.24684306281851606, -0.1975261987862874, 0.3507703806691112, 0.2821850840029721, -0.16809316479399677, 0.29479486737821825], [-0.05764676764836455, 0.3802706630245855, -0.23881013555776004, 0.3082961726741923, -0.11022736671742835, 0.028948743180638625, 0.29853235272214385, 0.32162468697423513, -0.2523813731559282, -0.2627786390263112, -0.08795092952780635, 0.2362782578912978, 0.3357086122767082, 0.3150201432499374, 0.3591283910832539, 0.3306267707536474, -0.1705572728673231, -0.41923822134649275, 0.21099289413954914, -0.08076919868523708, -0.4131203437939838, -0.12170652843300239, 0.4476079862648683, 0.2353664386875956, -0.05569197058137403, -0.0354450504774112, -0.12789718255890936, 0.03831962811781448, -0.12365826206170977, -0.2186856898661703, 0.1219143528594058, 0.11044530090502976], [0.199465520275988, 0.07919623742008984, -0.07857071018835608, 0.015552207518370215, -0.07877589885114561, 0.42070571322731865, 0.014757765987570885, 0.19433347543241233, 0.18997508113513067, -0.023448058269399268, -0.27526654873349066, 0.19372022738197894, 0.22551234545405505, -0.002864057151674174, -0.010770778075495072, -0.1554786220083146, 0.0486794677284348, -0.41456410188308046, 0.20929636658539033, -0.14024803086701262, -0.09238490746172236, -0.2793768559426009, -0.03803083960992511, 0.19682939711095593, -0.17500238293980688, 0.26459758605112066, -0.6107304072199392, 0.1697765041294943, 0.24030391612294902, -0.2322670814920421, -0.29127500824885405, 0.019493590219337126], [0.2048990887722469, -0.1098618096853793, 0.05163860321799316, 0.07066982626816987, -0.4387413170328608, -0.17078890075024095, 0.3252740443071514, -0.18005758288077214, 0.05102944477777014, -0.3163022932382611, -0.08010714676727536, 0.3362152066180422, -0.007681550569975381, 0.4220877250426984, -0.24911032025051433, -0.26481460312707833, 0.2642513398886873, 0.28619614721677455, -0.1923774647408934, -0.1889273627303445, -0.2418012294888761, -0.13089925029225757, 0.32907038113839676, 0.262035985465568, 0.011254205674105674, -0.07167550927058909, -0.11988608952253371, -0.013232449028905567, 0.3840924151467426, 0.2046063215206683, 0.21003272281036103, -0.2718650005942554], [0.23656379491292526, -0.11029518877064322, 0.27142093433695313, -0.0031672358974900506, -0.06822472375288477, -0.06382025100032092, -0.051049838177213744, -0.2067095134515067, -0.004447766163500918, 0.09800689645771059, 0.15787026938356732, -0.021490387444222072, -0.4486687164496102, 0.33890749035322393, 0.3201232591789487, 0.18609457788299502, 0.15646096765753115, -0.03778796210582317, 0.24818625561001975, -0.28497333669575325, -0.05024957131413935, -0.44438838741023345, -0.3024380044034845, -0.13937937786717056, 0.13958047930526965, 0.08094731990571921, 0.16401101016543343, -0.1878271054325299, 0.36235369991287264, 0.15229359169443127, -0.1093253531971241, 0.19908294751996083], [-0.10776602690608952, -0.3249600767012927, 0.41606160939758347, -0.0986488866444882, -0.0611244570577787, 0.2795417837458996, 0.2529925760755607, -0.40517288133327506, -0.32852102849809284, -0.4782756900681123, 0.12757382729782948, 0.03339839764410461, -0.20971835435860173, 0.2796384340455294, -0.13871107371718283, -0.16877930290292215, -0.022467907066861064, 0.24885337952461248, -0.257907479978229, -0.11379891169901385, 0.23554478924431585, -0.11321133029723325, -0.010540416688338126, -0.03200061937175128, -0.2375137030196535, -0.3405814595541319, 0.09151357539984514, -0.2795944772729397, -0.006792889647647504, 0.3190510387891554, 0.2870951804651036, 0.29287609209799215], [0.20503754734631538, -0.09551512710953973, 0.3297835789056633, -0.06517538532458185, 0.35487425145216117, 0.2901112830762227, 0.14120094801752847, 0.33479164637956466, 0.02059319579189442, -0.20078452054042464, 0.14744498530579522, 0.12119014350071704, -0.3168618004616804, 0.13546327639141498, 0.2727888148824918, -0.14591813872958995, 0.04734530734864966, 0.241484377902734, 0.4107424652197413, 0.35372113740389444, 0.04437715690044411, 0.2508771152189283, 0.3458375437786351, -0.142745808503484, 0.018284115260576782, 0.14593058231320566, -0.2612255169726546, 0.08519056867127299, 0.1841310611857777, -0.15714341206926777, 0.0884340112257739, 0.25157303472807535], [0.14075489108081427, -0.3152908850803461, -0.18543034601631567, -0.18865924170981357, 0.405824536432075, -0.2419557244373227, -0.15278791208974327, -0.04474074590683512, 0.17182531200080695, 0.4457337610338928, 0.20637262719409422, -0.39657504491495976, -0.12290014274506064, -0.41036658816897115, 0.016560325525935338, 0.13892591391156414, -0.18566547607267164, -0.033696291799764126, 0.12322324583197439, 0.4000934939456753, 0.49124560956797725, -0.3189902645646632, 0.2371126438687656, -0.09455792596273155, 0.12828404805759538, 0.07015687167720551, 0.4168296239355672, 0.46661518009943814, -0.11399502894215796, -0.16215951602747, 0.08914383643304608, -0.06685264018645043], [0.08900346630637712, -0.04178202104123057, 0.16597199932784484, -0.13268311390618337, -0.26065179151762785, 0.22965941355693087, -0.13784526245093373, -0.002100681633018731, 0.04823837990497799, -0.15032271963264354, -0.2596595952588194, -0.17181553940697067, 0.3007859165409126, -0.13690415736066108, 0.19343865016148376, 0.18151236018382869, 0.025961992504185127, 0.12157197618057194, 0.17203513702282816, 0.12933053237145992, -0.22600491953561003, -0.2358928709769236, 0.3242005572957594, 0.40850527828761196, 0.1834722429693895, 0.002360541483913202, 0.28791450024443904, 0.18761032534560704, -0.13162510183781662, -0.2880810606345259, 0.18905346307319917, -0.37199182019624205], [0.2788943299030352, -0.15873358018680292, -0.02596512561462731, -0.3548328088762368, -0.44797793793920115, 0.12725527848556364, 0.25132868706939504, 0.12054467655299025, 0.3322329127990965, 0.2906454593922315, -0.11530407275810203, -0.16005869942985249, -0.06358131380270665, 0.17497089465920684, 0.1181215998873836, 0.44927170744397066, 0.0967448796281737, -0.5193856842956018, -0.06176937071278598, -0.3656077387744958, -0.4313681724600648, 0.07687993774865122, -0.5540166309041786, 0.20492969622369653, 0.11523454030960062, -0.17681353624698776, 0.4418734970784114, 0.16504551363383588, -0.01598493521452254, -0.13207827899055752, -0.06909038246325974, -0.3463474738278518], [0.15644907743385747, 0.32719211788543556, -0.17910047853180378, -0.008920916812732365, 0.17889454527603724, 0.03514710104316148, -0.3127309110106162, -0.21584182260552554, -0.09507379395843765, 0.29280201743165507, 0.11764406518689786, -0.058687540295567484, -0.22177164061019414, 0.15732332909783683, 0.3658335460604781, 0.37865495181413794, 0.021842033040440627, 0.04111844879830886, 0.1091801996815927, 0.1819551438273584, -0.26524398503634433, -0.01383382146258675, 0.32157181869604134, -0.22584656970975708, 0.4016423549654676, 0.12398369381729599, 0.3127805499138085, -0.17257160548796455, -0.31137533707559495, -0.15653522500656886, -0.027270579496171222, -0.027336515116823203], [0.19375641017257178, 0.1754855560388515, 0.131480158703389, 0.04896122981978253, -0.07460339199309601, 0.27006719370985877, 0.26349489560038375, 0.04134718337344991, 0.1395403107785089, 0.2762634472879178, 0.29664145848638673, 0.0599525140815157, 0.06414864371438926, 0.23253842433038044, -0.08145101558418297, 0.18046149612664789, -0.3719374148492875, -0.023201351927560038, -0.1673287938199584, 0.28677107731389917, 0.18263800772604669, 0.10405353540645854, -0.06032938686480589, 0.031132380703146393, 0.28606859731449175, -0.017367536203575316, -0.07983626705875048, -0.23892623156490844, 0.26051392287384634, 0.2153447921472402, -0.11045838216441939, -0.09553092851860417], [0.32909294401813066, -0.07815836318967521, 0.27251902112503745, 0.27422502327245574, -0.10050279954940891, -0.22280756995466822, 0.275380607739011, 0.17293489424521066, 0.04555099591589775, 0.23482419711166408, -0.1155205246145172, -0.08554021387190758, 0.1225555341964057, 0.27120663876798234, -0.031276169080717835, 0.26493510200743153, 0.07716424006426183, -0.021423399056945982, -0.34110172988409765, 0.1529266978479006, -0.28414173464486514, -0.1120087766616588, -0.46268892456671656, 0.2847407399809495, 0.15245815840579632, 0.16803462781842146, -0.23323656101548682, 0.0465114086648431, 0.126700227222751, 0.1611033020225835, 0.3049038891366869, -0.3091060702335934], [0.12708887888370843, -0.6245506891650637, 0.2033892445190305, -0.11208740834474511, -0.14939830778010071, -0.0533929735180047, 0.17422170977069046, -0.23562283129603673, 0.061177264907186404, 0.028216980424120804, -0.126076653887443, 0.10531969796268797, -0.05156041140872364, 0.012134141816329625, -0.03457233386762424, -0.026486992285254526, -0.5443600421006617, 0.12992162578283187, 0.20063980098365855, 0.08697193942262693, 0.10163363586747338, 0.19364927370922588, -0.05727616981059946, 0.10379249696978575, 0.06773852161113705, -0.3915089018209505, 0.06297688812980257, -0.14493911519124722, 0.08835228418890906, 0.287531020520913, -0.07572371343583985, 0.044442469717099566], [-0.2862438113475544, 0.3576087974951125, -0.27979153180557675, 0.3192194236743831, 0.46823941387422646, 0.3042671656732649, 0.00152828368296889, 0.06908867323005594, -0.01350939683766028, -0.4712371542927347, -0.08348481380623278, 0.12449077886724597, -0.10197944313967298, 0.0448886722791575, -0.05251275715311975, 0.11304368000054484, 0.2919056807476555, -0.03591586045619488, -0.25118819230689227, 0.23490212336462557, 0.2245941393970638, -0.27009940616000166, 0.29752187548873166, 0.20812493627440362, -0.1656381981649981, -0.15535896865790824, -0.23898227456955654, 0.2474360958693191, -0.04131108069213435, 0.211587107009414, -0.20820258060213692, 0.4906481840290693], [-0.25074717124746204, 0.08621640717193624, -0.056063045613897855, 0.3511934452429565, 0.37058493412329746, 0.10461143104333842, -0.0920353118712064, 0.48913396982537455, 0.10491756986589076, 0.2455114958271106, -0.23419087601180502, 0.19498981724888037, 0.35730046043669655, 0.14671946357935015, -0.2261206143988221, -0.3397052330162069, 0.08188416941198916, -0.013634347801236957, 0.14272408209802548, 0.35421792006906755, 0.039098938800263064, 0.3492695139718681, -0.28878941352148707, 0.10430904780556131, 0.10434258062936774, -0.2695418633689486, -0.42991465111306365, 0.2134733384624847, 0.08296514412738658, 0.34298071234340505, 0.25317412374112525, 0.2363175580645931], [0.014041347316523154, -0.20583267559173754, 0.25024133438145, -0.2587574983998388, 0.007420033626052311, 0.015892102704499454, 0.25678106956924346, -0.1629904982985178, 0.13026500521284912, -0.46036892939687063, -0.11159966757903289, 0.22678757977704514, 0.33049207317068063, -0.03673138971950465, -0.14267464340246439, -0.16764137568089052, -0.023077575588390648, -0.1448400055259132, -0.09276726874946718, -0.11658205547452197, 0.14458484098095542, -0.09437116853267295, 0.19994610088443696, -0.2670630837307447, -0.016220431476776678, 0.23417187807214615, -0.046336680944741734, 0.4698048359275696, 0.4821203588322318, 0.10374297647715099, -0.07578871762210711, 0.1904554495165804], [0.239338079102881, -0.062347802483730536, 0.4570106004529871, -0.4643704830642893, -0.4674349658181131, 0.3477077004862267, 0.424607562599163, -0.020761501043561968, -0.45733655097017456, -0.19944890937031404, 0.0026472789472827447, -0.07942168874186689, 0.3622777897374913, -0.1755390900410055, -0.006995462761634135, -0.26525468941597596, -0.15824067744248355, 0.011933490429459808, 0.21754954152638462, -0.34919327324073623, 0.47197831609453755, 0.05943377930266017, 0.49940196826361566, -0.08774120509845991, -0.12650333312647133, -0.47599639497842483, -0.6294114761575061, 0.2456577882848869, -0.04452173479874613, 0.07760849162489797, 0.491526683100911, -0.025354435972483682], [0.47725390413723173, -0.1550362304317947, -0.16594901135375237, -0.021290557192420536, -0.10683141496840129, -0.5399280948304281, -0.3942426187709286, -0.07455403397878328, 0.10391778438526743, 0.17686250801508588, 0.04793593317198665, 0.4702263629198528, -0.26117698308336773, 0.17313058135862522, -0.04022729442576019, -0.21894008157962935, 0.15441356591289201, -0.019061467201236703, -0.19487167254257798, -0.1580725571620024, 0.3174270331709713, 0.03408466735009755, 0.09904918416729781, 0.6009282558257084, 0.4188435290190564, -0.001746987553863989, 0.21427485878296745, 0.08205191708735848, 0.18233469803170396, 0.14003735645940318, -0.2880220862144418, -0.07315379648887577], [0.05581659599986065, 0.023248666464168587, 0.020249128180636716, 0.06067077649102034, 0.15524276157448016, 0.0994513873234423, 0.20367276142815277, 0.22488488474899143, 0.23081708453329008, 0.3430235057807031, -0.1866299050137678, 0.261226666923113, -0.1437246396820218, 0.050909673105003495, 0.16606073189388623, -0.10810019118341962, -0.2583103018185146, -0.24276351995487552, 0.3844569352573197, 0.18224428915361943, 0.03339972493787178, -0.15272445822675623, -0.347383876109387, -0.3390274017245505, 0.007371892787940399, 0.4582999219838284, -0.33644554546796135, 0.012163924849764033, -0.29185369479252304, -0.28724389050948024, 0.33379925158713536, -0.1966254694156869], [0.03583668345325809, -0.3436948785052936, -0.12994521235065778, -0.21038960152187713, -0.33677247268161775, 0.363286290637375, 0.2782035355811387, -0.0842136306427546, -0.011090328405999867, 0.19697383166682067, -0.10324383688512623, 0.19864992481816704, -0.02986925720905421, -0.25511020484075875, 0.00881944703716042, -0.1580107458183558, 0.2803520790484155, 0.1959332324408405, 0.2518835475872002, -0.35020519537079986, 0.10185519659494091, -0.20071226484947402, 0.07165802434675693, -0.12405062199582878, 0.31646619002569454, -0.018034789471692875, -0.1931677929843902, 0.39459663224623515, -0.12939341322183473, -0.08686604146138403, -0.13210010642853837, -0.266915945161593], [0.07657839486802573, -0.007995624415023184, -0.005578593348786803, 0.28948332334928656, 0.2706467624566935, 0.07404699413700236, -0.30280038053681557, -0.15933276245713382, 0.20660531367522977, -0.26057724900926493, 0.43547216844324593, 0.18746592427307207, 0.2767802521750336, 0.11544517882619786, -0.33256946269246124, 0.3157209541081687, -0.19789637711254776, 0.03469759306242938, 0.16646008710774698, 0.3480618994778479, -0.09813290303669785, -0.12790720465842637, 0.004099362420305773, 0.517095895106827, 0.241817514285697, -0.628395081654819, 0.12139934100995092, 0.17482718127431032, -0.1296942466579226, -0.039986646558050454, 0.4535355436025516, -0.16260298004181672], [0.17519422549502495, -0.4566258455247952, 0.08736774038204809, 0.1034247693963322, 0.02089113238356117, 0.2981740097495844, 0.19048597112168908, -0.15813482720722297, -0.11039182442526764, 0.14745260956870299, 0.052935171300333206, -0.3613417753642442, 0.15297724435834067, 0.06448437733785213, -0.024130552743901745, 0.0018366181926205562, 0.07118698184590316, -0.3257196136244033, -0.14021484030374004, 0.05086708570545309, -0.05964528642642505, -0.2985280341318374, 0.29037986215869027, 0.20556588376327217, -0.17914910648092527, -0.16467427817777142, 0.42297405580972863, 0.18744472706941823, 0.30859958503101603, 0.12475189745028671, 0.05092397715688354, 0.06267616145012801], [-0.36617092427993814, 0.1374617855196495, 0.20785773543359673, 0.30240336948988816, -0.2822132288529834, -0.3075807420572442, 0.34674095404212557, 0.06245194342878401, 0.17045009391570498, -0.020632154025167132, -0.11995683464324787, 0.028225934544039807, 0.22303519457484253, 0.002415391520477512, 0.037562436058581526, 0.004775810684047534, -0.013813783010083996, 0.47904580622290044, 0.17697908055551057, -0.25847751682232295, -0.14276661708453467, -0.09659238975011727, -0.23500504760189478, -0.3893234995377525, 0.20973264812109965, -0.18179646124556254, -0.07747555928986175, -0.09221387037187963, 0.05521733138666917, 0.1735489053053882, 0.6030031487222344, 0.18893320385256326], [0.15805537384929777, -0.11736904443667362, 0.05445218898962391, -0.07871968588461839, 0.1963353956268307, 0.1599699832968135, -0.0261141977919675, -0.01673667853821671, -0.25104176230973363, 0.2480027897473077, -0.1201118784570943, 0.2288431467064006, -0.19902598207658356, 0.25331376724101445, 0.4054156469199878, 0.17242547928207325, 0.13628965892991748, -0.3403218348580864, -0.23781521853185125, 0.16566639625553028, -0.20743216290225805, 0.07995985864410972, -0.4462806085633843, -0.30608369527077744, -0.22617711551074046, 0.3861739925829671, -0.09677637335459444, -0.008940211271010814, -0.06265006302723543, 0.06781027037770897, 0.10507311729876596, 0.16432290307676387], [0.2938356059038425, -0.19735734254795084, 0.4622916916507562, 0.14392766576644986, 0.1799017615851188, -0.04134031081820318, -0.002481855794129327, -0.15926229981327614, 0.24176547882002788, -0.5042242167443877, 0.25622473340821483, 0.07503261441558472, 0.15909440668625757, 0.6383170434724466, 0.6155052081865923, 0.5189576694391805, -0.3600533076447587, -0.5366753862637246, 0.15447615754185307, -0.18060274504903387, -0.28422316579295753, -0.2666384569885994, 0.24969249209166666, 0.3769375431386937, -0.28155983196693335, 0.15829767897842717, 0.1313048542181953, -0.27818699304050687, 0.15829685026437848, -0.12276745772460856, 0.4607036531945995, -0.37132561852147916], [0.24629010809784177, 0.2544549462451191, 0.2678826308274419, 0.08959130379533653, 0.20512310878039813, 0.06943975048700944, 0.19103056939505977, 0.15268840946461276, 0.24093431550083216, 0.17909527604529857, 0.24784266395107818, -0.23256455053544242, -0.13361500264920187, 0.15973900999626267, 0.21741010740656258, 0.2726036647305914, -0.21894750472438274, 0.0027692059424369816, -0.020202421872509254, 0.307718050934578, 0.20466585545155072, 0.08585901442505468, -0.14421367745991365, 0.20486230062797506, 0.00736057188357409, -0.23864782235339377, 0.022624059415130484, 0.04780769532390993, 0.22166297963057197, 0.01039347785454565, 0.2161115981861295, -0.08675553546030393], [-0.13565270900075332, 0.1939202103708108, 0.1404524524503264, 0.058626312180019555, -0.22975865673128024, -0.09037638709992152, 0.26809457890269217, -0.14810965578043334, -0.1799709731546812, 0.14324530697012391, -0.22547095556943633, 0.1887647651743802, 0.36720601470944497, -0.15394616191966345, -0.333422468493721, 0.14693465681224135, 0.0790933618382562, 0.3047258791954446, 0.3554996086433447, 0.16057172715273807, 0.3070974865873986, 0.1272878210364071, 0.10771051849032898, -0.042671575609924246, -0.2426025092337719, 0.0684854102319175, -0.2703065271371908, 0.4438814563665305, 0.15705256896799547, 0.08353987818606225, 0.2320640938947242, -0.17843114735345642], [-0.22179745725975497, -0.07294978526004756, -0.37620740009000614, 0.06576172933950666, 0.2593385077793297, 0.3680785435719497, 0.2033452019529558, -0.283402397973086, 0.30822068285330034, 0.4471511848046684, -0.12719015732712358, 0.3043793539529477, -0.10063320489165099, 0.18017892417399756, 0.37327247279024245, -0.31896942347052165, 0.24199912750514108, 0.13718435265269896, 0.40680947815966306, 0.14115599195657774, 0.14481798691964243, -0.19785588439224153, 0.0002310984482141385, -0.10697505540012009, 0.3774636307694884, 0.4272843396203154, 0.07216660573750297, 0.3616389884101539, -0.07120656420884203, -0.23796622299844483, -0.15588484872441044, -0.1422364096689477], [-0.3121240269592446, -0.2976986349380975, 0.07722085765144834, -0.1692831880635726, -0.42707974399418047, -0.057617494619281194, 0.6597897586798693, -0.0978013671234179, 0.3437259530445771, 0.26489096088115494, -0.4952183887612097, 0.10025953322688463, 0.06350524686885105, 0.009313665386857722, 0.1153128474649728, 0.0749904623809358, -0.3370745090221828, -0.5217550503498665, 0.48175643381399, -0.5667352518066439, -0.4350877213200336, 0.24223829189949098, -0.11479971107019958, -0.2500379703064286, 0.127307450941293, 0.3705598508890729, -0.11169352682649714, 0.1316462539693366, -0.36302293790012763, 0.068503709828819, 0.5230695951933134, -0.3855702108791583], [-0.0023562184206390654, 0.08730642533496925, -0.15619429099097656, 0.24392227263586766, -0.2490255681248803, 0.15385022160093478, -0.2515101686242759, 0.10853919979246507, -0.3417145267597259, 0.26018538729281393, -0.28926944498863477, -0.18425915914046087, 0.19916099085096153, -0.014623793344240056, -0.22037281927941121, 0.16202849467339597, 0.27859766205674985, 0.2891315002783994, -0.058392049670805045, -0.028379743503514545, 0.10555850320479093, 0.4332613137713629, 0.4355497411125143, 0.04898451353174279, -0.13327847644914576, -0.05344438614498561, 0.2300872586116264, 0.1918426914650784, -0.18459454956886018, 0.15859958618260428, -0.03313407751286025, 0.4387177008294395], [0.09443402945591602, -0.19161332768563724, -0.08656976261502586, 0.36505287156773925, -0.45737300911894024, -0.3090819936362345, 0.3850847563315799, -0.35625657658594617, 0.12771443479986086, -0.14797189348355352, 0.015216223323908172, 0.29693804274779456, -0.25192992397211583, 0.32162784085181134, 0.15379742872379554, 0.2109599068960029, -0.3232013966914552, 0.15850714491867035, -0.13689382681843562, -0.14660927323838574, -0.28217643410306026, -0.10802912032740877, 0.41220300214393973, 0.04939923445360255, 0.3710972185038257, 0.25900371707747405, 0.11720694316982405, -0.25078005238195533, 0.10851556786019743, -0.015562660555702391, -0.24859862798467888, -0.47364622765731756], [-0.04019487006058949, 0.4818441648178223, 0.2820065285647767, -0.07262771396704895, 0.20715394560564968, -0.009479380986835796, -0.12634201257768235, 0.1591473835360427, -0.4329743729459414, -0.15219579203925213, -0.08182191807469182, 0.2977614828428154, 0.1901481885342656, 0.15097411683090928, -0.0397991662810813, -0.283535233493497, -0.022039030674923837, 0.07501213504163311, -0.34914366996041174, 0.11844074244505516, 0.2646574723549, -0.20706252134499736, 0.030662095900733356, -0.2572459884470874, -0.25067734232838007, 0.3296785901918294, -0.46439146995403335, -0.06707623863563322, 0.27548833388608973, -0.05014799702299182, -0.0015810847854332891, 0.15353619271964095], [0.08906391517230466, 0.5476793210303911, 0.013039997133228762, 0.05293646538215367, 0.2809846394256328, -0.3579063124970472, -0.3326864759869373, -0.03565405477872386, -0.12450836462961463, -0.10704891001807339, 0.07406856207301682, 0.43927777324875705, 0.16330111095125058, 0.2347668297045162, -0.028129830886348847, -0.14615641904897475, 0.16388607960593626, 0.1519484430383074, 0.23204117328687665, 0.1521488128422116, -0.17683758808533812, 0.0780612631714652, -0.38137030701129326, -0.5231559575551004, -0.03654814524199217, -0.24512104434769474, 0.20758372417071194, 0.07018550961855095, -0.13526811971264502, -0.06200233420369914, 0.48344732513226785, 0.0191569214636282], [0.19577728587938548, 0.19653822300043033, 0.3258040470917701, 0.0012138552056763202, 0.1398913231291356, 0.06149548552514968, 0.3286400522277616, 0.097031764216496, -0.5241247326517643, -0.28775605212715816, 0.33477066829747576, -0.07622351509821838, 0.13480594715334412, -0.13803498853297422, -0.1922544083914643, -0.1158577595542173, 0.3314487805733887, 0.23313184870747292, 0.13611264381401822, -0.021313325521603112, 0.09540114351497704, 0.0061191434464071826, -0.19665690914405212, 0.16357941936657833, 0.30314718322886947, 0.17450920399290587, 0.051514858822305776, -0.009560078564476694, -0.021356312081017566, 0.22725591221762348, -0.26563097364548194, 0.14551026645077267], [0.17077543682905996, -0.14336884401824293, 0.25130530501303655, -0.2117610907938744, -0.3486206844831653, -0.3835972768078944, 0.1659213902942425, -0.37805633995718735, 0.014075182641399966, 0.06300376035375672, 0.14766229663220062, -0.07603254692886499, 0.058755588132762396, 0.3314065844056565, -0.01991625750096238, -0.24213506607650612, -0.1376151523473527, 0.17163983788446702, 0.16809159963859824, 0.11508362019453412, -0.016773167884674034, -0.13609455703029383, -0.2613814195152533, -0.009484133717731191, 0.014087527581420631, 0.31212652353751347, 0.2918929509687431, 0.3231634223834453, 0.3450783143334247, 0.12424633399695606, 0.3395119437344445, -0.33804052542630547], [-0.03144866395283946, -0.12988851847938637, 0.5190315369609958, 0.10405897668665127, 0.03166964527300605, 0.10063583389056556, 0.5312331074194637, 0.43527723425926146, -0.023636052870418815, -0.34976448110578817, -0.27181128832547125, -0.016505099024501695, -0.17511032272303534, 0.1828479092353136, 0.04289709256846683, 0.4869695362935631, -0.31768815692810665, -0.12607700896947596, -0.04272594758467276, -0.2118617184906398, -0.080476184501399, 0.06808364221929582, 0.2658305446087807, 0.11442132606061403, -0.14511109554786208, -0.6693411780145443, 0.32575067054886564, 0.24328473338394394, 0.19505098781166103, 0.279028223573704, 0.1906183970725154, 0.3638261809928595], [0.28900413736539105, 0.02037922750931802, 0.1590049086600718, 0.5079373304289615, -0.060021737108792925, -0.06732162335619563, -0.09942644690928591, 0.3841831434870883, 0.18344234465634246, -0.5560630102094898, 0.08249229723585783, 0.18290706613559607, -0.1848305098282441, 0.5230228299112131, -0.20198221845287528, -0.05312502484736264, 0.08387566514109604, -0.05822995901680607, -0.4315046292082305, 0.05473498229786511, -0.07066574738948311, -0.16641516841567697, -0.0029314771168236966, 0.2550876680068801, -0.03426529851597407, 0.11757481329732315, 0.46398724096316823, 0.11516607464330877, -0.029598258244030902, 0.192630209666493, -0.09418042503694082, -0.05019891584435719], [-0.20360276670690938, -0.6620344809064198, 0.2551730332456228, -0.007752849435691847, -0.17692382555587663, 0.056187125080502914, -0.036272963492798294, -0.08333797386458186, 0.03064832897304001, 0.4464478701077244, 0.2525297325271793, -0.08857815657466957, -0.1514342650080546, 0.018193903543465197, 0.34053229351346453, -0.01609019161176583, -0.24372801139658457, -0.07668515453546007, 0.12427098790622573, 0.030140620138690174, 0.2796959817798897, -0.17278872635218584, -0.670402117907052, 0.20825743429278812, 0.16012474227814513, 0.07826511172415171, -0.0834050885053385, -0.05630153724833131, 0.365286333166071, -0.11865451381307426, 0.3758957458075636, 0.23953959315768292], [0.10283119510660574, -0.40762861490973085, 0.13658943634314216, 0.022971505739377625, -0.17737336239209414, 0.07941601298121427, 0.33734675444697704, 0.059572777955254945, 0.07999432697777001, -0.12897500822390595, 0.07317120976620248, -0.28787536043749273, -0.02388071178419621, 0.29200226882358066, 0.16739838032312856, -0.17386803923199537, 0.0010076346559787128, 0.11434489321458984, -0.152923442517249, 0.19961162229079707, 0.15428980430504652, 0.020427232486702255, -0.1618894339391551, -0.10394391899054958, -0.14789311303365482, 0.010361329752365821, -0.06044455450258834, 0.12089814829718029, 0.22055722993612387, -0.16570517408030505, -0.08216689852560395, -0.09316416989007079], [-0.04620398887268933, 0.1386819913061822, -0.3138931965934301, 0.08568633385669676, -0.09894503612277068, 0.1976958844930126, 0.3231587200535994, -0.3564210846225772, 0.25921212197488824, -0.026746173224924515, 0.4153855205141089, -0.32861654110064564, 0.3622548203216319, 0.31855192988610703, 0.15577269139449035, 0.062292994481723235, 0.3148014845758154, 0.11775031708650496, 0.35749108498631793, 0.16623011976296748, 0.06496356865334044, 0.011156812504816004, 0.19607558331593192, 0.1714342298267202, -0.40773229431743147, 0.4800145795811032, -0.012379334179437432, 0.2157333001608398, -0.07477104343224042, -0.3449118196409946, 0.2809579508821611, -0.22947503986294146], [0.22875146284306322, -0.1634082602425536, 0.16608290629901817, -0.25014387723355913, -0.05566438770224294, -0.09029698921533741, -0.1929296123231482, -0.04882083046948147, -0.4365562390190758, 0.504888251693207, 0.12234733873513429, -0.08408561087876298, 0.041156740720214094, -0.2221057721550799, 0.051826141877692626, 0.013050290028785926, 0.17709584391438868, 0.1545859604579562, 0.29196423531344307, -0.17605585408419452, 0.5984511509454058, -0.13411802274518364, 0.24815397765744648, 0.02061088461793615, 0.36306090525822693, -0.11097285177308198, 0.30057109682546485, 0.03268557619907517, 0.14683631593962712, -0.1736547450031612, -0.07545527539199451, 0.11788298461848212], [0.3674289918128759, 0.3317287046273567, -0.16450626340066948, 0.307594182565193, 0.23862216595188937, -0.04902789600549673, -0.26607235734500556, 0.15783043365322855, -0.3054415981854251, -0.20396133174816877, 0.3090168291962875, -0.04642186203670032, -0.14360385425689035, -0.03236154084306059, 0.12778977100984507, 0.5404781995208372, 0.5463948886393548, -0.12766151667551862, -0.5390226732627265, 0.4643417712265509, 0.05358649113338787, -0.06462440025668034, -0.038825480250992334, 0.18174372408972211, 0.3800811810264067, -0.1292108579051184, -0.23310561870418148, -0.01567251456547877, -0.39114265571802104, -0.08052701148649685, -0.303069640230627, -0.5382874343576938], [0.04241443630947423, 0.16312617728747109, 0.4223624441894684, 0.1071643428991138, -0.12093521844048026, 0.26128452640795435, 0.2416336155020515, 0.27966186793248576, -0.46503565284558773, 0.13475759989847527, -0.4537871218579265, -0.19860491072011732, 0.4443722812455126, 0.07844380901058565, -0.38993415731038655, -0.07839334559266875, 0.09872078476574189, 0.2621561390845189, -0.24147475809767924, -0.3192973451043048, -0.11302903611436864, 0.28213623358839024, -0.019520531516242102, -0.06705170646092998, 0.11530910155530306, -0.45905687777270254, -0.1255772802469139, 0.3137391337199506, 0.08674654897854202, 0.08297366849180542, -0.043473922843988384, -0.027624106357803387], [0.24444718258850404, 0.20766075237211545, 0.14462798861449688, -0.31122130856632474, -0.5237822450897407, -0.31187349790247204, 0.1386332358150305, -0.5807814261857056, 0.1041836094575752, -0.12113556384370236, -0.3386388928477018, -0.013407016828946898, 0.3028968959471503, -0.023729487296133632, 0.07619721205482713, -0.13801502023225376, 0.19426319130759143, 0.3219481827013457, -0.03659600291207391, -0.22804295247065592, -0.07372367152526223, -0.2277733799325399, 0.3172699881148833, 0.30913987949726296, 0.14828855605118962, 0.38051706611816627, -0.059956745507658, -0.0789429526068178, 0.18888205232439176, -0.3186143900529165, 0.20070635589214994, -0.44087773410146236], [-0.3932003710962117, 0.18100877724078948, 0.07923275328118366, 0.31429043464074813, 0.5901481275699788, 0.25435456427766756, 0.3141327483480782, 0.2813322597506004, 0.40770241705943255, -0.3796800578485708, -0.12664710274749902, 0.2000346152695354, 0.04032578874383737, 0.10762220140754361, -0.23166794194024823, -0.022768794317074913, 0.11325036816694341, -0.11333503870107162, 0.40437064247122734, 0.11622873794385015, 0.23963019091518617, -0.0955050767147654, 0.2560143193535714, -0.2531023879580984, 0.03765268792440027, -0.42171447193317463, 0.19381439962780586, 0.5436627531912368, 0.25339295062772244, 0.21501726456436943, 0.3217285803263982, 0.24652870487896436], [0.18149963805241398, -0.23397933227600612, -0.18125238671583038, 0.444278370301264, 0.27471187635742383, 0.30254925638919744, 0.027000381624275354, 0.47496264316710063, 0.27952665930665593, 0.0010674650225188352, 0.1827260716134691, 0.14552912058021755, 0.050871482628622434, 0.0724755107218697, -0.12161266418415391, -0.24223066646715438, 0.11442559812923306, -0.3207541731861197, 0.0019293536167015591, -0.012475598771943474, -0.014520114163372334, -0.3135266497736847, -0.03734885756787447, 0.4305274326778135, 0.058566289812480944, -0.24229832589588576, 0.061157177990175025, 0.26150990996980217, 0.18696379357242235, 0.2200255164530016, -0.41189819731261734, 0.08283183064023272], [-0.20028045521886303, -0.32695625590182736, 0.005284133495329213, -0.22739192178920073, 0.24979737907625574, 0.0448116708059185, 0.16422691476905174, -0.19818335950841992, 0.06372246479977967, 0.056912120513552926, 0.23744301260667086, -0.3754309173113612, 0.1842799808018551, 0.1334952897093492, -0.1797261158578088, -0.11099614624922131, -0.26704852399550655, -0.4376775866673705, 0.04830608561114216, -0.239641725041573, 0.27470690792036984, -0.33238089054534187, -0.06907393514795399, 0.2597917640894621, -0.2712169740980898, 0.10940398949116853, 0.4141432807443229, 0.2696861501046379, 0.31702174956554435, 0.15256211174850184, -0.08502654208317366, 0.2657720653682135], [-0.13538000180659732, 0.12578273525249944, -0.0880750359732041, 0.1772410909335166, 0.17376294268877956, 0.06223463543920213, 0.14071414722487355, -0.2579587835435844, 0.18976768941687305, -0.26781936602836376, 0.2531916188713102, 0.02151591239079711, -0.11545923044628502, -0.09037630674264199, -0.31403713721125087, 0.27626017311406137, 0.45560275319358173, 0.3134287795043603, -0.16496037704577082, 0.040531907276949934, 0.0624018402295165, 0.0021650536277386147, -0.5889030469047558, -0.1805356634930616, 0.10977615536092226, 0.06498380184979795, 0.05732025451996656, -0.42171103954984124, -0.006232213663634535, 0.20903585564645066, 0.13719739057773364, 0.09378778098847959]], "layer1_bias": [0.0027886156900473035, -0.22633735447294745, 0.0992764550507827, 0.05131209490148783, 0.13360312420331522, 0.04399744641870644, -0.00015980118654143583, -0.21122054648833777, -0.028589933158896, -0.13723651047319793, -0.05708571287699323, 0.30895540700146207, 0.07494149300431216, 0.13267745558423336, 0.13892501916555522, 0.22950129118519386, 0.017582943233521248, 0.275843801165342, 0.1304094548985142, 0.011106794604039936, -0.04363847522307147, 0.08576008526963043, 0.16898824834276996, -0.03497502539272622, -0.21353556533962792, 0.1656765090864115, -0.1346007435189093, 0.17982451457209964, 0.19816656250210224, 0.12040545240318212, 0.17942898627945436, 0.2953340137515479], "layer2_weight": [[-0.1499670295657152, 0.1236750945402714, 0.18875388812227686, -0.2871304439850011, -0.6826935622875376, -0.272068690398844, 0.005153235549304207, 0.19074750433552798, 0.15895204946404493, -0.20556520466881661, -0.6093807215450001, 0.5830201128025203], [-0.5444182823004773, -0.1230747639112982, 0.18692867374970373, 0.3363283845347367, -0.8040114748725539, -0.337305286702044, -0.1555798633980145, -0.5497919504394492, -0.19628629788603147, -0.36869625301273024, 0.4095429865109774, 0.4318526718632541], [-0.752147785746923, -0.24897866375866304, 0.1973547288031858, -0.11863444151143952, -0.35133608525765414, -0.05166275750894237, 0.38804091644639865, 0.38428339728230737, -0.15466607001243682, 0.2172708494665168, -0.225644288420484, -0.07865651521014096], [0.22314157721528144, -0.5395486725423496, 0.1417624664193847, 0.2916452652469157, -0.20979565495696015, 0.24231038897699878, -0.6435994413742008, -0.16196503263161494, -0.6562603897942894, 0.19681852464271643, 0.3080946343102671, -0.21566082869651956], [0.09905420464108673, 0.1956338172719584, 0.24525717492477372, -0.12791329601098514, -0.7071573744762535, 0.6221750130652554, -0.3126656021898757, -0.6736031205020742, -0.034271543296755864, 0.715797680228921, -0.24932114455006577, -0.5774509553381374], [-0.07935417797707897, -0.1787243473652062, -0.21169249170574544, 0.0757106886802415, 0.7409850727944379, -0.2555986430787559, -0.03043690840746615, -0.07691064720673255, -0.6337792679806483, 0.3518412809362232, -0.2147087461471466, 0.061780653443259066], [0.2728169059986847, -0.4406515364838899, 0.2006363087589009, -0.8592484853437797, 0.5214157035149928, 0.3676010992461446, -0.09265645977908771, 0.5000203608731837, -0.6969559555023954, -0.02224235395544782, -0.057354291110490355, -0.21621419380921378], [0.21295455641316063, -0.4002079372310351, -0.6419793852141978, 0.009442720333188225, -0.5367838936094437, 0.2964706911169951, -0.4693844462099101, -0.7050895394942155, -0.540108448504468, 0.5105941342049828, 0.5439554469265888, 0.4436142960689809], [0.06818708082015812, 0.44674346284206684, 0.48886524560255684, -0.8569185847265012, 0.15786989797441014, 0.5116148287715457, -0.2744131254360596, -0.6424871395516618, -0.5714585857784821, -0.6186159533391393, -0.04417815207570346, 0.1374365806303099], [-0.48421671110608594, 0.405276447403142, -0.06688911125165024, 0.2838208348364838, 0.5899533029172814, -0.5703636711750916, -0.34048367017714865, -0.11348896239350104, 0.4652629195500233, 0.22185804024674424, -0.39353353115707945, 0.38676126142260125], [-0.4904609556621566, 0.15663294228116073, 0.4582460188590327, -0.1528228056969251, 0.0075114128212863925, -0.7102530035085901, -0.29801854464999555, 0.014765414949315953, -0.14187240876111126, 0.39501852579928165, 0.1060163501956657, 0.020043339006851305], [0.40017902174711456, 0.45148695806553896, -0.8052617519846124, 0.5577033004026176, -0.4046104282632055, 0.3379909849654924, -0.2792034468634221, -0.656073312787805, -0.0038619055435787316, 0.30589851370730864, -0.09179618417562463, -0.5153247956589635], [0.13261677299332023, 0.15528141023458064, -0.2685415680285148, -0.2349885957108713, 0.13465874792065274, -0.6936714519881969, 0.3939931909908898, 0.36038833154799177, -0.05093880058210916, -0.3500019714212061, 0.42233274291063355, 0.13827722386849417], [0.3611739568295822, 0.12433582997466396, 0.2571975956101583, 0.25871381248713354, -0.49466657429220345, 0.308661477702242, -0.0247715145465825, 0.20340937628190425, -0.5289695011632216, 0.1402493165902722, -0.07090557802741881, -0.5101703560274974], [-0.6166771016544518, 0.3539443209649587, 0.5703170309707684, 0.30453034386895267, -0.2663656639609896, 0.26732834410219714, -0.09812826795249358, -0.12046997633246875, -0.44713750641955974, -0.8200103938442241, -0.6446245321424743, -0.6171443974783106], [-0.5802298767392015, -0.22652342465728822, 0.15647656542688576, 0.20764280146244368, -0.21455904308386023, 0.3348194126539598, -0.1303776065746429, -0.08219202794718548, -0.5146207638025296, -0.667705134183844, 0.14703562947513626, 0.30759575560478747], [0.4704791139295098, -0.1420108422054326, 0.4246136167399673, -0.2779281945961087, -0.15843530276351886, -0.7094702966409246, -0.37202472971154066, -0.13814605072980096, 0.27553698379641145, -0.6287746584469218, 0.3236373248659825, 0.4434594416003623], [-0.20055460458705396, -0.7152903859634214, -0.29067966241756016, -0.26674115225530576, -0.23717100338131855, -0.05289740835098153, -0.35964280433876156, -0.478417079044774, 0.77595797435675, 0.12495014688237405, 0.6252825002764577, -0.2756979248382038], [-0.2255698156005899, 0.03790776828892286, -0.6358616774614271, -0.6220794568006981, 0.37249526474718125, 0.15890078900936713, 0.034706208123478244, -0.212416746775092, 0.03029458194828589, -0.4381351492307893, -0.029861757674852576, -0.42062214194908004], [-0.7830490172073707, 0.2968983947839319, 0.18129912857891986, 0.10280254417123266, -0.3929346652841166, -0.1517696019655244, -0.36663247533442817, -0.3155039883068245, -0.38022667478264893, 0.30740160827561624, 0.3569935141086879, 0.1828938095369714], [-0.3094019079645265, 0.23750890305970357, -0.5546237345832055, -0.3093803967209117, -0.3680502527108663, 0.1474089746941605, 0.5956872701733639, -0.40024401693403927, 0.6287460137033815, 0.5640205183308622, -0.32954901598557834, -0.30417194538791065], [-0.5330750121834625, -0.12895782218644852, -0.6555103703968423, 0.8587322764471037, -0.0031173446840778106, 0.06938621991452168, -0.29826578043475305, 0.10787867816546617, 0.3359682898833186, 0.5294282227284288, 0.550241126150888, -0.477188444591611], [0.2853795503952787, -0.617193899700208, 0.13635570154483162, 0.2683447254855886, 0.011110171269352792, -0.09362546734607774, 0.5884303148240307, -0.8510391035766093, 0.11501360506458633, -0.3723138332397396, -0.2461666451262658, -0.10325450335787603], [0.7268233987043803, 0.030212448958867634, 0.7578232327147064, 0.028375339072369783, -0.7089291384838287, -0.285449091783146, 0.3646683696685172, -0.18594377387898317, -0.3746331443832833, -0.5001396471516164, 0.08507907268764042, 0.33114741472154685], [-0.1809732892365027, -0.1410898257415878, 0.05150497153266557, 0.30401629500622096, -0.08433540609756954, 0.21748849911706652, -0.8510404764402425, -0.08689061925417178, 0.3472605801326335, -0.032636722073998405, -0.43889682437497235, 0.2430042069751867], [0.27072847235241954, 0.5192444889655436, 0.5747134827334022, 0.23911231629760682, 0.22918862286695993, -0.5899155701443034, -0.5714977250133576, -0.1644192818535028, -0.14160645780954023, -0.43295892787118995, -0.3941681920540244, -0.4759119117560304], [0.26794323207437465, -0.4862541795044763, 0.2652345190418825, -0.680115150108188, 0.36173932410112025, 0.6582241853093681, -0.9862632679482498, -0.8168837091769269, -1.0062687046492111, 0.0576674838884663, 0.28465976326001174, 0.2887246073534945], [0.23661769651083275, 0.18890324732931807, -0.6917051024544701, -0.60004314235571, 0.46181960302583025, -0.14777091372480713, 0.32484400387347506, 0.12146226255077779, 0.2178065603071185, -0.20975958714998677, 0.2358881437955592, 0.462630551054406], [0.2869833722618228, -0.39293615922969544, -0.10150939858531159, -0.40540859941156226, -0.5629961839452544, -0.35443176025183, 0.04486858227474459, 0.1919805751633779, -0.19992575616774602, 0.1588729476259365, -0.6541949496135513, -0.4125043662223895], [-0.42969574621732204, -0.10745078723586321, -0.2053714526568272, -0.09487536402775365, -0.15886828174630724, 0.09885435001163158, -0.5299769945203663, 0.2690532635739988, 0.05093275054194175, 0.3027838125077558, 0.27843254467505396, -0.35890020752479607], [-0.535457040770732, 0.4366740426172953, -0.1947881870232474, -0.2119714750201724, -0.009584952219988075, 0.1986363369866738, 0.5254824494901147, 0.531515192567008, 0.05274220100724358, -0.2641434043756141, 0.5014426786477847, -0.8755313950921372], [-0.44370258339458707, -0.1557012936155073, -0.45980001992979175, 0.13743606774762898, -0.8055876069093948, -0.08122863774037334, -0.13687955466231808, -0.07065090781874939, -0.6644214031491893, 0.6142103103161043, 0.28898502897512185, 0.054033981240780314]], "layer2_bias": [0.03499127485398709, -0.26379198884506166, 0.3614426893586446, 0.14238568071988544, 0.4023261787300836, -0.2521553626182663, 0.13243228471286492, 0.2126754891821957, 0.08141732369319055, 0.3895055989906145, -0.05292504038530658, -0.2650942288940829], "label_map": {"barking": 0, "bleating": 1, "brushing": 2, "cawing": 3, "clucking": 4, "croaking": 5, "crowing": 6, "food": 7, "grunting": 8, "isolation": 9, "meowing": 10, "mooing": 11}, "feature_dim": 32}